39 160
C -0.062526502 -0.11162177 0.13195947 -0.11545743 -0.03984113 -0.077720843 0.15584186 -0.10568912 -0.14309219 0.19137911 -0.21937439 0.047429275 0.16260271 -0.18695246 0.095755309 0.1034295 0.24382044 0.12452246 -0.058212016 -0.23417109 0.077449739 -0.078990825 0.070299335 0.11980674 0.033114329 0.033044215 0.10219095 -0.14871767 -0.25348467 -0.13132849 -0.059882417 0.12134806 0.095728382 -0.019373966 0.11256955 -0.024148064 -0.15674599 0.043973293 -0.10376338 0.089170367 -0.095494524 -0.10084262 0.079050392 -0.10183155 -0.0070491596 0.07636679 0.10660776 -0.17905718 -0.017710071 0.077608794 0.074226826 0.033954818 -0.059989162 -0.066731036 0.11561252 0.037836306 -0.014104896 0.035697296 0.13966298 -0.0071062851 0.037553452 0.22234997 0.091899224 -0.067992963 0.035662901 -0.012380343 -0.15187028 -0.32082018 -0.057864949 -0.012179045 -0.18061164 -0.091581143 0.12738036 -0.12156396 0.1415915 0.19130993 -0.023541033 0.032852668 -0.22146085 -0.084221877 0.21463132 -0.29410797 0.069487996 -0.13965856 0.085592791 -0.031829465 0.078554854 0.20267819 0.13305229 -0.16769394 0.024525516 -0.046331916 -0.028309224 -0.1925296 0.027811585 0.17015867 -0.042432833 0.037961192 -0.1425689 -0.10784756 -0.034331113 0.032736991 -0.088021114 0.16163923 -0.11243842 -0.039820466 0.021173196 0.054574542 -0.12343074 0.054649271 -0.06463217 -0.036993604 0.048183482 -0.0098021738 0.048553538 0.025602717 0.29256937 0.020550592 -0.05945247 0.032298297 0.22548246 0.20174755 0.18202981 -0.26477885 0.048679128 -0.079024635 0.083530612 0.10969251 0.033644259 0.074764371 0.12711538 -0.13455513 -0.0040156418 0.077129424 0.1139915 0.049536284 -0.11582651 -0.14354569 0.20158623 0.29659209 0.069720723 -0.033807855 0.10552069 -0.23338994 -0.083386615 0.23423138 0.092728943 -0.20015021 -0.11196368 0.1749946 0.092081271 -0.18996558 -0.0065697082 0.021301525 -0.22937439 -0.056450121 -0.13532813 0.063312024 0.26865771 0.054927945
c -0.13463108 -0.0090386653 -0.008795904 0.17972635 0.20994556 0.20771115 -0.06798479 0.26930895 -0.16646762 -0.33395094 0.13135207 0.087975346 -0.23083581 -0.049587548 -0.20454891 -0.55912399 0.15151021 -0.2524772 0.014564113 -0.29873887 -0.10227928 0.2309742 -0.099591047 0.017219119 -0.31854954 -0.090182498 -0.11122926 0.0025635287 0.15194969 -0.18272778 -0.094372697 0.0095793167 -0.26851562 -0.029237809 -0.096141279 0.32228491 0.29909429 -0.36373624 0.060017619 0.22782329 0.010127573 0.28679529 0.01799576 -0.44952032 -0.14397892 -0.075171351 -0.24826665 0.32648271 -0.020946143 -0.076002173 -0.016266452 -0.020445211 0.15878752 0.023126224 -0.03031034 0.034864977 0.0024239502 0.10578492 -0.043633342 0.23728368 -0.12726124 -0.094084002 0.12501575 0.28535968 0.10770193 0.10487848 -0.17527328 -0.022092558 0.047030471 0.20793191 0.25616521 -0.33963081 0.16461012 0.50832778 -0.13850914 -0.29763195 -0.15289833 0.021143073 0.051443562 -0.31510109 -0.021625211 -0.012233521 0.048913371 0.11691748 0.161194 -0.44781455 0.12679765 0.14524901 -0.055437807 0.0051573692 0.45828351 -0.027672388 0.088058479 -0.2702345 -0.13471046 -0.44169384 -0.083307482 -0.19972877 -0.012511859 -0.14685267 -0.061324496 -0.11271059 0.039716411 -0.060402907 -0.0026372264 0.0014858195 -0.26033056 -0.1554814 -0.098255254 0.35634759 -0.013615238 -0.15129746 0.14222036 -0.15874927 -0.11521179 -0.12100095 -0.11048283 -0.078986637 -0.34522825 -0.016577397 -0.25863755 -0.08379028 -0.11508801 0.15307634 -0.0044040512 0.12228282 0.029672615 0.3723627 0.091000125 -0.12575191 0.14818707 0.049906429 0.12540106 0.192148 -0.39259666 -0.15878052 -0.049934238 -0.25085407 0.30549183 0.11938641 0.055183906 -0.43147165 0.40087539 0.063644797 0.22988068 0.038912449 0.098386593 0.10244584 0.037530433 0.31003404 0.26091987 0.03855709 -0.090235129 -0.20140016 0.21502842 -0.10876799 -0.38169166 0.22365066 -0.1444172 0.19154078
( -0.078048468 -0.089557052 0.094098926 -0.037385959 0.016079172 0.018238362 0.078486741 -0.01109997 -0.15787825 0.051040191 -0.1262964 0.052707098 0.047636066 -0.12938425 0.011106975 -0.084946446 0.18949884 0.0049154079 -0.044612266 -0.24549642 0.041732367 0.022855926 0.025128236 0.099738166 -0.062306874 -0.0036474327 0.028209176 -0.10204694 -0.13334206 -0.13651453 -0.033850089 0.10168318 0.0041722562 -0.036299381 0.048540153 0.077992149 -0.0080366097 -0.068673685 -0.067196958 0.091109 -0.078492545 0.0050415127 0.082576618 -0.17484294 -0.050610248 0.034328315 0.033206496 -0.038233958 -0.014169747 0.021331029 0.036853999 0.032241233 0.025855631 -0.03646161 0.0710527 0.025701853 0.0073128282 0.027504856 0.10280524 0.063507631 -0.0092438431 0.13820192 0.10655976 0.031126957 0.04873528 0.018158944 -0.14090712 -0.23888987 -0.013092646 0.068586931 -0.045643907 -0.15274221 0.10301128 0.05241945 0.071290754 0.065040827 -0.047067035 0.037676696 -0.14492376 -0.13392445 0.14544511 -0.19014221 0.064004391 -0.060577914 0.096956871 -0.14995259 0.063647829 0.14892934 0.064062387 -0.12540415 0.14038177 -0.06469892 0.0068661165 -0.22045796 -0.026808914 0.02254183 -0.043666374 -0.010801111 -0.065949239 -0.12352936 -0.037247159 -0.014192455 -0.064476706 0.082571432 -0.08312428 -0.025917929 -0.050068777 0.0046445169 -0.10948986 0.12721834 -0.043326903 -0.073271945 0.073960677 -0.051292215 0.013253131 -0.015588691 0.16927551 -0.043466095 -0.14080831 0.016925246 0.085665785 0.11487272 0.086232595 -0.14581658 0.023722867 -0.022760674 0.088389605 0.19031976 0.04789982 0.036906999 0.12190901 -0.083272249 0.030177036 0.11318143 -0.0086221537 -0.0045318953 -0.078939371 -0.14247973 0.23602615 0.23438528 0.055782191 -0.14122996 0.17990515 -0.15972014 0.007535669 0.18958539 0.072828874 -0.11345249 -0.080816433 0.20088589 0.14296746 -0.09931539 -0.016654968 -0.046140548 -0.10342221 -0.066402115 -0.16239527 0.11385535 0.14025919 0.062497005
) -0.085291885 -0.076161578 0.071708664 -0.01413292 0.041443318 0.059954461 0.04323484 0.038586907 -0.16491129 -0.013838422 -0.094600074 0.056252297 0.016461369 -0.10720731 -0.020154279 -0.16447927 0.1780456 -0.046377916 -0.039780576 -0.24567617 0.024254521 0.066116557 0.013373915 0.097851843 -0.11408529 -0.016600832 0.0035209614 -0.08401113 -0.099367358 -0.13673395 -0.02415053 0.090659514 -0.039173003 -0.045581024 0.011236108 0.11849084 0.046575394 -0.11546776 -0.041154195 0.096070781 -0.072429404 0.049823105 0.072681472 -0.20717908 -0.069856375 0.022421164 -0.0079873959 0.02003682 -0.0052847825 0.014987083 0.023731254 0.037660826 0.066989228 -0.019907093 0.048674874 0.0061626183 0.0034332005 0.022927772 0.084007628 0.10537841 -0.02381346 0.097088173 0.11312417 0.075274393 0.048506606 0.021489564 -0.14023313 -0.21242581 0.002544899 0.092733219 0.0073677525 -0.17903867 0.10028711 0.12679504 0.043374378 0.007565307 -0.048963077 0.031543434 -0.12456517 -0.14164253 0.11739839 -0.15146431 0.046736754 -0.034588106 0.10873118 -0.19937699 0.071460374 0.12841532 0.041992161 -0.1134578 0.1951513 -0.065399587 0.033290263 -0.234506 -0.044932328 -0.04220866 -0.046575513 -0.043883894 -0.036193825 -0.13300501 -0.039246313 -0.031336673 -0.057048436 0.05820692 -0.079473093 -0.017847188 -0.083023071 -0.024887955 -0.10714824 0.16271535 -0.030648148 -0.095045425 0.084393635 -0.073253118 -0.0032988016 -0.030419037 0.12700729 -0.072208077 -0.18644986 0.0045997617 0.032725219 0.060672488 0.047299143 -0.097148806 0.014189191 0.011502519 0.082227454 0.21611823 0.046197671 0.035413876 0.11250667 -0.073855005 0.048632134 0.12651907 -0.064475372 -0.031920068 -0.068158381 -0.15514506 0.24893416 0.22374527 0.035614096 -0.18326862 0.20509066 -0.14333859 0.038478371 0.17058679 0.062389396 -0.072009996 -0.072275154 0.21024324 0.1596013 -0.071329542 -0.022247249 -0.078903615 -0.044046946 -0.078542419 -0.17587812 0.13347843 0.092944853 0.069617338
O -0.049530324 -0.091182657 0.1142772 -0.088225067 -0.021723414 -0.030272355 0.10105527 -0.071754247 -0.15742159 0.12432659 -0.1712002 0.045624562 0.11366719 -0.1183449 0.030530568 0.0049998648 0.20743719 0.047715798 -0.056224972 -0.22834229 0.074301891 -0.018351894 0.048605587 0.12441135 -0.0067981519 0.0075425063 0.049418375 -0.13998745 -0.19680493 -0.12715425 -0.032375749 0.13369755 0.053038947 -0.037113857 0.069650374 0.050815832 -0.067992896 -0.0011121286 -0.08202415 0.07175453 -0.10024098 -0.044761769 0.094320178 -0.12338215 -0.021905618 0.039801065 0.072531559 -0.12611914 0.0099012163 0.046432558 0.040344886 0.036924273 -0.0097130397 -0.035480574 0.09117686 0.017409807 0.010172887 -0.0078428341 0.12970863 0.014556535 0.0039745076 0.17534809 0.087634914 -0.032362066 0.034529772 0.020922279 -0.1236274 -0.26400742 -0.034509756 0.040962648 -0.10538729 -0.10229868 0.082657337 -0.044347294 0.12305055 0.13829809 -0.027744967 0.043277096 -0.17854582 -0.072296858 0.18538563 -0.24770622 0.056557845 -0.10832389 0.095808983 -0.093298525 0.063105531 0.15055612 0.078097813 -0.17302266 0.082684495 -0.064753078 -0.019690882 -0.20258807 -0.013600993 0.11301247 -0.056734797 0.039522961 -0.069864601 -0.12074344 -0.031035818 0.010257566 -0.070753962 0.090121426 -0.10217115 -0.023665581 -0.0087634195 0.043506064 -0.10177783 0.075788721 -0.06393601 -0.067677267 0.058570947 -0.033901699 0.019239509 0.0060691456 0.22002767 -0.038084496 -0.10230048 0.0073248576 0.16945042 0.13143106 0.12048419 -0.19621925 0.030304885 -0.053799603 0.094907716 0.14609696 0.014930041 0.088076741 0.10816928 -0.11264727 -0.00068190775 0.10434158 0.086084202 0.027483653 -0.096277073 -0.13133563 0.21884093 0.25254822 0.032219321 -0.086347938 0.12230495 -0.20072609 -0.027001951 0.21313588 0.060081098 -0.15492393 -0.10011872 0.1707819 0.11670724 -0.116229 -0.016901705 -0.024545288 -0.16473281 -0.058133326 -0.093903147 0.097544253 0.19841141 0.037793189
1 -0.080584832 -0.052881449 0.060018677 0.029741919 0.066692755 0.066076629 0.030565076 0.071892418 -0.1498933 -0.062238242 -0.03550297 0.057323359 -0.04152967 -0.076832734 -0.065688662 -0.22023341 0.1726142 -0.078232907 -0.02716754 -0.2494725 -0.010764701 0.081448458 -0.015645774 0.073622383 -0.13233919 -0.027498618 -0.022682058 -0.06757354 -0.041623067 -0.1396247 -0.062273022 0.072445258 -0.075908527 -0.035653427 0.0099298293 0.16311473 0.095386624 -0.15608686 -0.021138975 0.13035305 -0.047926717 0.09531372 0.060958266 -0.25319085 -0.065423399 -0.0081712902 -0.058657754 0.064839676 -0.011258076 -0.0043477095 0.016030746 0.0089786369 0.048826221 -0.011227257 0.034262121 0.032015156 0.012684652 0.043209273 0.051086631 0.10349666 -0.051367845 0.068626061 0.10331964 0.096675672 0.067412995 0.057839017 -0.13068925 -0.13981266 0.0049904846 0.10718515 0.045795828 -0.1937802 0.11775427 0.18322606 0.011030177 -0.048744708 -0.073629394 0.034527734 -0.069623694 -0.17698292 0.085367166 -0.13782009 0.05834204 -0.0043722782 0.11692397 -0.23149683 0.089689344 0.14388897 0.014748776 -0.087975502 0.23214982 -0.040877052 0.016841905 -0.21099931 -0.06064127 -0.12732314 -0.064761117 -0.06168754 -0.036183998 -0.12733439 -0.047331158 -0.035684206 -0.014694848 0.018262273 -0.050135694 -0.0069321347 -0.11115952 -0.041243926 -0.091898344 0.18314776 -0.043954413 -0.096336007 0.087423511 -0.083842278 -0.037250314 -0.049656115 0.066991575 -0.039452422 -0.1984643 0.0057246583 -0.022542192 0.042595193 0.01377366 -0.037215974 0.0073897215 0.020991089 0.058008008 0.22557841 0.043095507 -0.0068353466 0.12280843 -0.030422518 0.045536101 0.13923793 -0.11477081 -0.057182014 -0.067337006 -0.17443448 0.23586476 0.17606129 0.049428944 -0.23168068 0.22711514 -0.073335052 0.073296085 0.12837648 0.076425135 -0.039781913 -0.030729067 0.22312833 0.1716902 -0.034022588 -0.046743907 -0.097537391 0.0069134906 -0.068247773 -0.20806178 0.15195459 0.039254185 0.1006719
@ 0.015116716 -0.17107092 0.2325794 -0.281284 -0.17212899 -0.42601699 0.43434525 -0.47356373 -0.17874777 0.58468765 -0.4951129 -0.0069891717 0.47837299 -0.34550124 0.30042198 0.62355828 0.44159663 0.45612067 -0.12480607 -0.2616668 0.20177254 -0.4085857 0.12993601 0.15111874 0.33121395 0.096183345 0.28240836 -0.39559591 -0.54165804 -0.22150126 -0.16809823 0.21858931 0.32131016 0.089304447 0.34945303 -0.26424018 -0.59186089 0.31105834 -0.27338764 0.14379509 -0.15327159 -0.37488374 0.14119364 0.097450271 0.10606147 0.17606099 0.34495205 -0.60707438 -0.026065344 0.18748431 0.16006814 0.083052747 -0.36946544 -0.073463686 0.32766831 0.13317126 -0.035882741 0.033397637 0.22043298 -0.2480173 0.10115384 0.52968711 0.031760361 -0.34728211 0.072831236 0.027775818 -0.17854325 -0.59694028 -0.17442378 -0.14098808 -0.56062585 0.00041450895 0.17416698 -0.65187103 0.3968268 0.52617896 -0.054258533 0.031709775 -0.41600817 -0.016596075 0.43772933 -0.6962654 0.14579028 -0.33035827 0.095353909 0.23224187 0.096197464 0.41798425 0.25462893 -0.35878313 -0.24588488 -0.0031221395 -0.20258287 -0.12935267 0.12300373 0.63408202 -0.02204491 0.24934392 -0.3776516 -0.042522956 0.027131569 0.16186599 -0.10137898 0.32261547 -0.17422193 -0.080541678 0.21229921 0.20319141 -0.2299832 -0.17198937 -0.1719688 -0.027152615 -0.034124896 0.14818515 0.12087549 0.14061163 0.63389933 0.17975058 0.26154369 0.085739516 0.61639732 0.52278107 0.52707934 -0.58449769 0.052295927 -0.26126 0.15543681 -0.064799592 0.026232338 0.12797424 0.15442516 -0.23834603 -0.12141894 -0.0055975663 0.48238122 0.17220144 -0.2956779 -0.1461813 0.1622902 0.42709666 0.12581097 0.19783665 -0.1075083 -0.38477841 -0.30478278 0.36625403 0.19724955 -0.4831183 -0.14999004 0.084446043 0.023232507 -0.4173823 -0.0064370357 0.22036719 -0.60720843 0.032253947 -0.044796243 -0.0055700433 0.62093562 0.10078148
= -0.066705361 -0.10720684 0.12293585 -0.078145795 -0.01799757 0.010342484 0.081072934 -0.039923146 -0.17072585 0.10974189 -0.17252235 0.068141468 0.10135513 -0.13720444 0.024953296 -0.042101443 0.21362193 0.033303019 -0.051952705 -0.25504911 0.063898109 0.013605888 0.052752476 0.14122991 -0.041129116 -0.0026459112 0.043014478 -0.1224223 -0.1999829 -0.11734103 -0.013463037 0.13583823 0.039905507 -0.055620287 0.049349293 0.06300246 -0.028065307 -0.030530497 -0.085892491 0.066283956 -0.11626655 -0.043100398 0.096568681 -0.1499342 -0.040672056 0.041892547 0.065432131 -0.092062786 0.0110955 0.048397481 0.031561181 0.034748718 0.028910188 -0.058285289 0.076285236 0.0036010772 0.007386616 -0.0069739274 0.13638394 0.060423296 0.0083184829 0.1606189 0.11009969 0.00058195944 0.027326399 -0.0075897062 -0.14979452 -0.28199086 -0.026816051 0.038351074 -0.091775343 -0.12854692 0.092872366 -0.0016087203 0.10337368 0.11776112 -0.02045594 0.040410172 -0.18628113 -0.076360114 0.18606421 -0.21554112 0.056171745 -0.10823259 0.10635827 -0.1200344 0.065856501 0.13983802 0.083167933 -0.16788745 0.10949855 -0.079420835 -0.0046837004 -0.24384317 -0.0084226364 0.077514619 -0.056457307 0.02420746 -0.05481137 -0.14749154 -0.038452119 -0.012285059 -0.088213742 0.10686178 -0.12210465 -0.021689374 -0.021046802 0.03905056 -0.10627596 0.10457113 -0.052822772 -0.068367705 0.072996818 -0.057477225 0.023422154 0.0070247478 0.22108047 -0.061008062 -0.1540255 0.0057377815 0.15200853 0.11801927 0.10313095 -0.20009208 0.039339624 -0.042918079 0.10020928 0.18141845 0.030988356 0.099248789 0.12260075 -0.11718009 0.012283523 0.11236355 0.057309128 0.029855691 -0.077052034 -0.13323887 0.25046116 0.28667152 0.034922343 -0.12049676 0.16254978 -0.22726446 -0.011418279 0.22349206 0.060707513 -0.1459994 -0.10820314 0.20456447 0.12865011 -0.12155567 -0.0034194509 -0.045291584 -0.15030536 -0.08374656 -0.12091867 0.11338134 0.18342428 0.033912655
[ 0.0035190058 -0.16898288 0.21133856 -0.25347975 -0.13743697 -0.38401705 0.40381595 -0.43398046 -0.19309239 0.52652389 -0.46055874 -0.015179843 0.42231837 -0.31647304 0.26761299 0.55082989 0.42725489 0.39991659 -0.11387353 -0.26654503 0.17035463 -0.36364284 0.10878965 0.13859966 0.29378998 0.087299697 0.25754878 -0.37973323 -0.49980611 -0.22857057 -0.16343085 0.20980856 0.28944278 0.093904823 0.32373708 -0.21166892 -0.53378713 0.27253148 -0.24441361 0.15414725 -0.1392611 -0.31676245 0.14731272 0.057321746 0.088782586 0.15830374 0.30966303 -0.55266494 -0.013613365 0.15850064 0.15871109 0.079835996 -0.34261844 -0.075154155 0.3090454 0.13128479 -0.028097279 0.034602404 0.20672293 -0.23099454 0.087929502 0.50475448 0.033774119 -0.31284454 0.085820228 0.038609643 -0.17494012 -0.55266178 -0.15707666 -0.096330121 -0.5029844 -0.013886955 0.17429829 -0.58229655 0.36642748 0.46695337 -0.073616423 0.043500409 -0.3910574 -0.048222419 0.396853 -0.66875374 0.14454645 -0.29221177 0.088863768 0.17229472 0.093534656 0.40029129 0.23665082 -0.34144866 -0.18308705 -0.015362844 -0.18995513 -0.13025206 0.092865512 0.57039315 -0.037121568 0.23413266 -0.3486926 -0.039429273 0.026917057 0.15771343 -0.089117184 0.28322741 -0.15321922 -0.064968996 0.17367949 0.17997077 -0.2262553 -0.14117362 -0.17462666 -0.035410684 -0.020829773 0.13764495 0.099257343 0.13035679 0.58807009 0.16182102 0.23081902 0.067512721 0.56043309 0.4901756 0.48602185 -0.53345883 0.04856579 -0.24102591 0.15867595 -0.03309178 0.030486317 0.09914697 0.14792064 -0.21253988 -0.10842688 0.022494201 0.43700743 0.13178019 -0.2834489 -0.15823007 0.18051033 0.39482325 0.12307927 0.15419072 -0.085346304 -0.34140545 -0.26547125 0.35248029 0.19241531 -0.44674942 -0.13286525 0.091551289 0.047667131 -0.38465092 -0.027399808 0.18133558 -0.55504614 0.036967441 -0.065344758 0.0062655234 0.5759359 0.11099251
] -0.0018609978 -0.15590693 0.1953468 -0.23140614 -0.12847331 -0.36236745 0.38534895 -0.40059313 -0.19515781 0.47506288 -0.43342754 0.00032729853 0.39931676 -0.31025824 0.2427422 0.49353594 0.40611199 0.36888468 -0.11113338 -0.26498303 0.16797628 -0.33781067 0.10477511 0.14190656 0.25506553 0.073128819 0.23000151 -0.36764395 -0.46863341 -0.23014382 -0.15629506 0.1963796 0.26084876 0.083209857 0.30102864 -0.18855618 -0.4862569 0.23008366 -0.2344899 0.15815815 -0.13089134 -0.29558957 0.14354578 0.030494293 0.085389137 0.13824569 0.28553507 -0.50831592 -0.018992463 0.15382123 0.14211103 0.074217975 -0.31362835 -0.062072679 0.28565857 0.12321126 -0.024261469 0.032368496 0.18552826 -0.20708837 0.067618445 0.47239557 0.038395148 -0.2780298 0.08949174 0.051117428 -0.16303079 -0.53297079 -0.15568073 -0.085846037 -0.45647588 -0.041849449 0.16544437 -0.52259731 0.34321985 0.42516679 -0.076499991 0.03140324 -0.36605588 -0.053507436 0.39092198 -0.63684034 0.13822016 -0.26873761 0.10526794 0.14514633 0.092499644 0.38918135 0.21259543 -0.33194476 -0.15295286 -0.017609902 -0.1801357 -0.14625993 0.083984822 0.52003354 -0.03614103 0.21420901 -0.33586618 -0.055967536 0.02960581 0.13316151 -0.07452932 0.26634923 -0.15314887 -0.060211167 0.15327202 0.16938597 -0.21372402 -0.11689773 -0.16243677 -0.053950887 -0.011904356 0.12299944 0.09211392 0.11581347 0.54500657 0.13969022 0.20072563 0.07004942 0.5228529 0.46274009 0.4649621 -0.5027594 0.04720002 -0.22232029 0.15015703 -0.016828304 0.027883798 0.10096258 0.15534079 -0.2048271 -0.10091484 0.021749007 0.39870876 0.12817514 -0.2747964 -0.15449047 0.18933164 0.38550586 0.12287451 0.12503922 -0.059512224 -0.32369971 -0.24127397 0.33434886 0.18920119 -0.4141539 -0.129823 0.098173045 0.054396112 -0.36194253 -0.026497379 0.16315229 -0.51810461 0.030136075 -0.067991473 0.024240643 0.5343256 0.10778783
2 -0.092872225 -0.044783842 0.038496189 0.065014929 0.11204758 0.083172947 0.018137921 0.10609256 -0.15484995 -0.1300219 0.0017873845 0.051858459 -0.082979418 -0.080909938 -0.09130197 -0.29011095 0.17220676 -0.1168097 -0.018578006 -0.25647619 -0.029188754 0.10396838 -0.043301523 0.047822326 -0.16984385 -0.040308364 -0.036138102 -0.06400229 0.010873576 -0.16196126 -0.079479016 0.054162271 -0.12548977 -0.024183972 -0.0097127641 0.19078535 0.12906823 -0.20549148 -0.00081461854 0.16365662 -0.026056034 0.1426882 0.053769901 -0.29392758 -0.080556273 -0.016578276 -0.097828351 0.12046736 -0.02021037 -0.029465862 0.011820084 0.0084145116 0.066408679 0.0088798646 0.027048724 0.037656188 0.0044650091 0.058073964 0.022793176 0.12917796 -0.073880903 0.038203653 0.1046066 0.14091076 0.085009955 0.071138337 -0.1391592 -0.11903408 0.0093634827 0.14164679 0.088556096 -0.23398545 0.12703922 0.25101885 -0.019717367 -0.11237478 -0.10636246 0.030143511 -0.042024236 -0.22063226 0.061444871 -0.11936639 0.060366672 0.029444525 0.12396267 -0.27859655 0.093572311 0.15501377 -0.0022175352 -0.061414436 0.28581202 -0.034423433 0.035469525 -0.21811263 -0.081741713 -0.19060788 -0.058996826 -0.08962211 -0.047966015 -0.12153982 -0.038068138 -0.04908276 0.0039866674 0.0056380103 -0.033657555 -0.0060816361 -0.1483229 -0.072417572 -0.10337184 0.22110493 -0.040459398 -0.11462623 0.096356779 -0.088141464 -0.054735977 -0.064547479 0.027995072 -0.042419441 -0.21062951 0.00252485 -0.073902346 0.021740703 -6.5560685e-05 0.0069744242 -0.0050476263 0.048258491 0.059055116 0.25226143 0.064443626 -0.049977478 0.12752618 -0.0063699493 0.064673409 0.14816225 -0.18338159 -0.089515321 -0.072807647 -0.19291431 0.24571167 0.15232469 0.056467932 -0.27347016 0.26209015 -0.028320998 0.10706086 0.1031932 0.086073004 -0.0065508639 -0.011863127 0.23540625 0.19505724 -0.023765273 -0.062424444 -0.11345375 0.050834108 -0.070483766 -0.25465029 0.16456459 -0.00018292214 0.13375808
N -0.085191295 -0.068622559 0.078950725 -0.0076060891 0.046205573 0.077233538 0.024746181 0.063586958 -0.14971097 -0.030407753 -0.068909787 0.066973686 -0.0064322078 -0.090385526 -0.045958683 -0.19901475 0.17158046 -0.068048134 -0.036323514 -0.24950582 0.017413424 0.088416189 0.010794663 0.096405059 -0.12083057 -0.023205947 -0.0090583572 -0.072231486 -0.083479643 -0.12805945 -0.028645325 0.095039837 -0.046884466 -0.057618141 0.004319001 0.14755043 0.076982312 -0.12976429 -0.027796803 0.097105592 -0.069011785 0.063415997 0.068759002 -0.2247909 -0.068473302 0.0063375523 -0.030308085 0.039097276 0.0018802789 0.0090893935 0.013167419 0.022891013 0.07610555 -0.025166892 0.032731906 0.0035569209 0.007483664 0.019182788 0.083488792 0.11101624 -0.038728639 0.073654041 0.1129334 0.081697091 0.044497982 0.025244899 -0.14004695 -0.17980468 0.001092464 0.092666686 0.028814839 -0.17800041 0.10537244 0.15903246 0.029030025 -0.0098311184 -0.047383431 0.037877165 -0.1054602 -0.13908294 0.10276917 -0.1320847 0.047272999 -0.026565222 0.1049051 -0.20690985 0.085352689 0.1187927 0.034277759 -0.10182487 0.20425346 -0.062251143 0.03111436 -0.23100351 -0.053268079 -0.078093901 -0.063549742 -0.050195172 -0.026256531 -0.13753188 -0.054473106 -0.035621315 -0.046109036 0.040659118 -0.074388281 -0.011638802 -0.096639492 -0.019924644 -0.092968732 0.17644756 -0.036973577 -0.082934134 0.093374372 -0.089013264 -0.01819103 -0.041080572 0.096986987 -0.067055359 -0.21013579 0.00039613986 0.017945614 0.037878584 0.016898289 -0.072573267 0.018954344 0.014902166 0.064706534 0.2206433 0.038977154 0.034159817 0.11993965 -0.062294282 0.049226634 0.13691214 -0.077471353 -0.033192184 -0.05571666 -0.16200714 0.24481368 0.20944159 0.031172395 -0.19697721 0.21708727 -0.12626451 0.055584528 0.16124034 0.054986749 -0.057207897 -0.065748639 0.22589095 0.15939258 -0.049286529 -0.026285429 -0.09733218 -0.021673132 -0.089842446 -0.181539 0.13978322 0.078029238 0.069693446
H 0.004523783 -0.14928168 0.19854335 -0.22805944 -0.1244083 -0.34842071 0.36486092 -0.38942674 -0.17546037 0.47120067 -0.40936795 -0.0043170038 0.38461024 -0.30407414 0.2411502 0.47689351 0.39716905 0.35606366 -0.10017531 -0.24957846 0.15651508 -0.32772276 0.087658763 0.14292035 0.25412416 0.077220418 0.23256817 -0.33667845 -0.45076624 -0.20563737 -0.16088925 0.18650004 0.24240403 0.070910923 0.28756145 -0.19588654 -0.47441879 0.2357112 -0.22276196 0.14993827 -0.12664066 -0.28562602 0.12507798 0.040476441 0.075871408 0.14222771 0.27342942 -0.49275193 -0.019912168 0.14827171 0.12824395 0.063732907 -0.30838472 -0.059621818 0.28626394 0.12466594 -0.036198564 0.023938145 0.18059105 -0.193561 0.06682729 0.45090336 0.031747703 -0.27369976 0.069430239 0.03602995 -0.16690199 -0.51583725 -0.14586915 -0.085275695 -0.458951 -0.031230606 0.16048241 -0.51160544 0.32672498 0.42227653 -0.070640944 0.028694466 -0.34499103 -0.044392664 0.36393279 -0.60285354 0.13318989 -0.27041003 0.096269414 0.15739501 0.088798955 0.37334776 0.21957414 -0.31292227 -0.15279324 -0.0082815299 -0.17198612 -0.13770634 0.079884194 0.50423777 -0.022418419 0.2020196 -0.32556602 -0.053571206 0.026642319 0.13343476 -0.077169336 0.26868647 -0.14359166 -0.064232133 0.15490915 0.16941477 -0.20956506 -0.11860127 -0.15480775 -0.049061682 -0.022893429 0.12027071 0.078332663 0.11130558 0.52811193 0.14704733 0.19485871 0.061996859 0.50781631 0.4355258 0.44815534 -0.48669723 0.031085731 -0.20571046 0.14296989 -0.021041976 0.034321435 0.094744049 0.14818409 -0.20193218 -0.083428487 0.01629225 0.38553536 0.12193827 -0.26046121 -0.14889532 0.17300323 0.37458754 0.11177324 0.12042207 -0.057687327 -0.32126874 -0.22738217 0.32205427 0.17256512 -0.40163147 -0.11963936 0.10248122 0.055359114 -0.33779159 -0.018075677 0.17178583 -0.48714083 0.026685646 -0.067328401 0.021997761 0.50705123 0.1099209
n -0.095174357 -0.029905668 0.01446513 0.13428108 0.17018624 0.11327836 -0.0032683667 0.15854047 -0.1904278 -0.23190843 0.058128864 0.066855066 -0.16154124 -0.072152168 -0.16356376 -0.4381797 0.20419396 -0.18827289 -0.0077752871 -0.31110075 -0.059959833 0.15632574 -0.088984072 0.039952807 -0.2434843 -0.079902664 -0.075800784 -0.071883857 0.081851423 -0.20204383 -0.11488473 0.047031444 -0.20521255 -0.017897494 -0.034133624 0.28617516 0.21079019 -0.30102563 0.0097407317 0.22955433 -0.017050631 0.22410519 0.056519412 -0.39226201 -0.11475289 -0.064120255 -0.18269765 0.20312728 -0.011400654 -0.065907985 -0.011482473 -0.010341593 0.089952901 0.035252478 0.025639586 0.054278702 0.015817123 0.068946041 -0.018639639 0.16966823 -0.12695846 -0.0052982038 0.10194013 0.21280345 0.11829145 0.13090563 -0.16602477 -0.081324935 0.017407281 0.19957137 0.16742019 -0.30849499 0.15370043 0.37079415 -0.065379255 -0.21469921 -0.15678138 0.025097445 0.014614132 -0.28509247 0.043537624 -0.12238321 0.076309912 0.063333653 0.16588667 -0.38639304 0.11589881 0.18492509 -0.045543436 -0.05441967 0.39369693 -0.021613082 0.033875097 -0.25563663 -0.13297112 -0.31598714 -0.082167633 -0.1275965 -0.046032615 -0.13980359 -0.041610103 -0.073683791 0.042059727 -0.036152579 -0.01977288 0.0058001662 -0.21443 -0.10340492 -0.11776112 0.29225066 -0.061419174 -0.15639991 0.1210634 -0.11686208 -0.10521945 -0.084628336 -0.04386048 -0.050446447 -0.27220792 -0.0036674917 -0.15382428 -0.0065776566 -0.032230712 0.083985835 -0.020358069 0.077614285 0.065904722 0.33473614 0.073522344 -0.091722146 0.15246385 0.028058982 0.090706371 0.18447779 -0.27804956 -0.13524546 -0.094187304 -0.24045257 0.30310348 0.13192673 0.059391055 -0.3840239 0.33485958 0.028837292 0.19091301 0.079110302 0.10720978 0.034886695 0.030315448 0.28691491 0.2460824 0.019254602 -0.089426287 -0.16289726 0.13256393 -0.081178151 -0.32919177 0.22253455 -0.065088309 0.18868703
3 -0.075364828 -0.050614923 0.058869831 0.024775803 0.078260198 -0.018382832 0.09736339 0.0064893048 -0.15622528 -0.019806596 -0.065214403 0.039823778 0.0024029112 -0.1398152 -0.021350743 -0.13250491 0.21983828 -0.0050398665 -0.025426023 -0.24252625 -0.0021001855 -0.0013424887 -0.036030613 0.046198275 -0.070789374 -0.0245286 0.024653954 -0.12383308 -0.065388933 -0.18140146 -0.12375153 0.058459681 -0.066248648 0.026351895 0.065297678 0.10092647 -0.016870556 -0.11734426 -0.046226595 0.18470988 -0.029595602 0.062644601 0.06205193 -0.23050235 -0.043477222 0.0099056559 -0.04045615 0.0056837387 -0.031006135 0.0019892636 0.049842101 0.012525079 -0.034686584 0.0012722036 0.090716809 0.074530274 -0.0070347199 0.075895742 0.027993612 0.052903306 -0.049326301 0.11542711 0.077295586 0.055645894 0.08830034 0.075307719 -0.14367554 -0.18443173 -0.025082191 0.088618346 -0.021267254 -0.20273334 0.14568618 0.092320368 0.039332021 -0.024156315 -0.12001213 0.028655846 -0.0840315 -0.20701662 0.11406393 -0.22918789 0.076101601 -0.025905542 0.11883644 -0.18341655 0.1061267 0.21662724 0.04688305 -0.0987022 0.1928973 -0.0051841754 -0.016867364 -0.18412404 -0.053091109 -0.066604495 -0.053071566 -0.043624315 -0.12915516 -0.086419173 -0.021208737 -0.0071954145 -0.0019912375 0.055660535 -0.034794621 -0.020985577 -0.084567316 -0.027494511 -0.13151649 0.15328558 -0.064989455 -0.097277813 0.060993701 -0.028406797 -0.037801586 -0.034195434 0.12096754 0.02399626 -0.09829516 0.018727323 0.027446356 0.12215223 0.10415894 -0.08400026 0.00067889004 -0.0086178333 0.065412685 0.18169586 0.071284197 -0.060542662 0.12539411 -0.030042769 0.031671543 0.10811742 -0.088758595 -0.053190954 -0.12741421 -0.18971182 0.21557501 0.17750211 0.084981032 -0.1844788 0.19790784 -0.051154379 0.040278789 0.13112625 0.119651 -0.085041314 -0.015857816 0.19583726 0.15880926 -0.097671546 -0.060124595 -0.038485982 -0.053412341 -0.036980402 -0.23803963 0.12592012 0.1011964 0.15499274
. -0.091546439 -0.072460644 0.084656142 0.024677236 0.086887568 0.13851276 -0.00023560185 0.10677522 -0.22478555 -0.096454434 -0.044142924 0.093951508 -0.07427223 -0.06098124 -0.12897465 -0.35769778 0.21702705 -0.15371169 -0.036792442 -0.32608926 0.0065850089 0.16525874 -0.021552194 0.13297692 -0.18125618 -0.066036515 -0.061797164 -0.099825598 -0.046926707 -0.18202138 -0.036246661 0.13604477 -0.10881825 -0.081362776 -0.012231932 0.2586582 0.19398561 -0.2284459 -0.016710693 0.12967679 -0.096485838 0.14552599 0.11134743 -0.32801732 -0.10200794 -0.032792699 -0.080784127 0.09353362 0.012648045 -0.012448145 -0.0060091023 0.032586481 0.12667061 -0.018894659 0.030467926 0.012993646 0.028907703 0.00025468998 0.085481554 0.17546612 -0.084517434 0.074504465 0.1390208 0.13742462 0.059216246 0.069271475 -0.16514541 -0.18596078 0.027003337 0.17949724 0.088977054 -0.26012865 0.10652531 0.28390527 0.019289771 -0.076780468 -0.082305677 0.06520804 -0.095904328 -0.20052087 0.12014993 -0.1577227 0.043500237 -0.0078911316 0.15568125 -0.33292797 0.11601835 0.13046946 -0.0031901016 -0.13928205 0.33802852 -0.082164854 0.028893741 -0.32547012 -0.11030117 -0.17592791 -0.10282765 -0.063346311 0.013298352 -0.18601315 -0.066236421 -0.067665264 -0.042694297 -0.012156226 -0.075103275 0.0061050565 -0.1609751 -0.051379167 -0.10662939 0.26654968 -0.06381239 -0.14218244 0.12186907 -0.13716494 -0.052665811 -0.069784358 0.071215816 -0.11879516 -0.3121379 -0.018569766 -0.041537896 0.0002424289 -0.019610902 -0.035637803 0.0064457641 0.034030877 0.092972904 0.32468539 0.054995686 0.031738687 0.14935037 -0.06167553 0.06249091 0.20929407 -0.15737608 -0.078284688 -0.071370929 -0.2107698 0.34405938 0.24488175 0.030926662 -0.33528742 0.32275134 -0.12264974 0.13315658 0.19397682 0.059254985 -0.043299641 -0.066874467 0.28962952 0.24009377 -0.015055255 -0.052393854 -0.17035286 0.044907384 -0.1162243 -0.2184602 0.23521699 0.025535064 0.1031564
l -0.1286515 -0.059785042 0.052388608 0.08046288 0.13770385 0.22398712 -0.056033082 0.20870347 -0.21168989 -0.20300855 0.019958381 0.1052983 -0.15188621 -0.056686807 -0.16216378 -0.48152989 0.17182595 -0.22261041 -0.019446217 -0.32715929 -0.036234226 0.22694449 -0.038168829 0.10410015 -0.2670812 -0.069042601 -0.090554506 -0.032355644 0.025096135 -0.17619151 -0.023470005 0.087514967 -0.17545785 -0.092143029 -0.067225657 0.29964259 0.27744001 -0.30475628 0.028714843 0.14318275 -0.058367297 0.21749166 0.08164455 -0.39435607 -0.13446619 -0.037405845 -0.14472681 0.21479288 -0.0068646255 -0.043104127 -0.0090628071 0.023429295 0.18980868 -0.01134498 -0.014046069 -0.0060865209 0.030847033 0.041319512 0.062167078 0.24332771 -0.087080926 0.00054337503 0.1644181 0.22196311 0.065768532 0.050539583 -0.17453688 -0.14059655 0.05303406 0.20742762 0.18635893 -0.3069993 0.12458699 0.42401475 -0.055873498 -0.17082365 -0.086641334 0.056617342 -0.05531406 -0.25080866 0.057936832 -0.061633334 0.034418114 0.045311805 0.15309832 -0.40342093 0.11874216 0.1017459 -0.018542178 -0.075327516 0.40919936 -0.085579395 0.090556443 -0.3428956 -0.13025832 -0.30443835 -0.089226678 -0.14501497 0.036836915 -0.19698644 -0.081086308 -0.096450955 -0.04114582 -0.034562845 -0.055734925 0.0026401379 -0.21649495 -0.10513902 -0.095159546 0.32859483 -0.02582689 -0.1433721 0.14245304 -0.16988707 -0.064954184 -0.10658458 -0.0042311535 -0.13744611 -0.37653905 -0.013880814 -0.14574996 -0.058947671 -0.088611349 0.044254709 0.0084811272 0.090912826 0.076206177 0.37388524 0.076632589 -0.013688144 0.15255697 -0.030203985 0.10501833 0.22021434 -0.27481833 -0.11873772 -0.035950035 -0.22809964 0.35641482 0.22524187 0.034907565 -0.39123213 0.39175692 -0.077879481 0.18109526 0.15774325 0.057810511 0.027623538 -0.048099775 0.32469752 0.26087216 0.019848296 -0.050849143 -0.20012844 0.13292529 -0.13928266 -0.28497127 0.24651591 -0.052467607 0.1112755
S -0.10303137 -0.055985995 0.061341669 0.034465801 0.08138185 0.14073271 -0.019240551 0.12140114 -0.1710591 -0.10685157 -0.020351673 0.078274921 -0.075947538 -0.065126315 -0.095660627 -0.32156637 0.15672952 -0.13621755 -0.026387177 -0.27019143 -0.0064824526 0.15241949 -0.010902222 0.099574685 -0.18507272 -0.044052545 -0.051523924 -0.045869712 -0.026609391 -0.13604502 -0.019826183 0.091260478 -0.10626531 -0.070404083 -0.033999976 0.2098549 0.1697526 -0.19495486 -0.008929153 0.1055774 -0.069206849 0.12493666 0.077307902 -0.28904366 -0.096024372 -0.019745279 -0.07876718 0.11936513 0.0049979202 -0.023790404 -0.0020228752 0.01567325 0.13155188 -0.014120606 0.006205136 0.0027971624 0.02430192 0.018274833 0.072413638 0.16489556 -0.057815071 0.036075074 0.1329399 0.14616892 0.049285531 0.03518407 -0.14203048 -0.14774987 0.026576543 0.14214341 0.10589495 -0.22428632 0.096226446 0.27133864 -0.011147305 -0.076513216 -0.064148001 0.041874614 -0.070424378 -0.17658806 0.082964212 -0.08293239 0.03835009 0.0033357276 0.12505074 -0.29003686 0.082130224 0.09640222 0.0027309954 -0.088828936 0.28780273 -0.078725122 0.056530286 -0.27346286 -0.082447626 -0.16946743 -0.075328246 -0.081261046 0.019600127 -0.16268709 -0.056693356 -0.069800466 -0.03850003 0.00076031702 -0.067094639 -0.0074002612 -0.14108218 -0.052453864 -0.090125643 0.23302054 -0.02964716 -0.11134895 0.10866129 -0.11953155 -0.041037682 -0.063014701 0.042893317 -0.11025481 -0.2789686 -0.013366595 -0.062387265 -0.012132605 -0.037271533 -0.018346693 0.011695745 0.048083499 0.075912833 0.2888386 0.045578085 0.020009959 0.12728243 -0.046179891 0.069009729 0.16608316 -0.15468365 -0.063380882 -0.040174592 -0.17140011 0.28827775 0.20398006 0.026235951 -0.27743229 0.28535315 -0.095339201 0.11035655 0.1498087 0.051296964 -0.014670156 -0.057154082 0.26078847 0.19543514 -0.0081505794 -0.031853344 -0.14220414 0.047860965 -0.10476731 -0.20730923 0.17437151 0.0040364549 0.072679065
F -0.17878489 -0.058218006 0.0054285079 0.13138488 0.20560965 0.26493475 -0.073959067 0.2286239 -0.28833127 -0.27385613 0.020992352 0.068374865 -0.20075113 -0.11917162 -0.14430372 -0.56939369 0.14316447 -0.28957427 -0.023933895 -0.34264323 -0.039628021 0.22285795 -0.098732613 0.080960564 -0.33181846 -0.093401045 -0.1182963 -0.051388972 0.082445376 -0.24130628 -0.0029820388 0.048312429 -0.22983287 -0.046814363 -0.074519947 0.28264984 0.30732653 -0.36990133 0.0425919 0.16987528 -0.0150594 0.27814078 0.12963732 -0.41397947 -0.19366397 0.013771797 -0.1404614 0.29535282 -0.037678365 -0.089719504 0.03830716 0.086728171 0.23645175 0.035260472 0.025267424 0.0096691148 0.038559273 0.078818768 0.050240099 0.31233174 -0.068506107 0.015712528 0.19049461 0.30407345 0.087421551 0.039831523 -0.18509121 -0.21364115 0.1015139 0.29465857 0.25590357 -0.40310937 0.12550446 0.51476228 -0.080138348 -0.25481486 -0.12122178 0.056447741 -0.06805601 -0.34114787 0.047031596 -0.027919261 0.045633063 0.10665744 0.1401466 -0.49127358 0.084357537 0.089664876 -0.030992728 -0.075008169 0.50700963 -0.13935296 0.15445195 -0.40463135 -0.17820455 -0.31771752 -0.041769646 -0.19798622 0.024720043 -0.17906672 -0.042847835 -0.13413256 -0.056010585 -0.048506573 -0.030594165 -0.00050468574 -0.26200256 -0.17844774 -0.16441704 0.36805257 0.0085967602 -0.2111724 0.12354035 -0.13287145 -0.057434585 -0.12292857 -0.019148491 -0.19912572 -0.3659544 -0.0061289389 -0.21517292 -0.034770474 -0.038271759 0.060608614 -0.050162468 0.1460658 0.13944003 0.44674703 0.15081555 -0.082124583 0.13868763 -0.016485166 0.14867412 0.22715841 -0.37005889 -0.19506675 -0.070847824 -0.21306324 0.41397876 0.23236689 0.05147434 -0.43371207 0.45907202 -0.061576229 0.20942247 0.17962982 0.074086741 0.068467215 -0.040727619 0.31846762 0.33693567 -0.0020671855 -0.042595491 -0.19083193 0.19462991 -0.10510542 -0.32516229 0.27114892 -0.11636055 0.14138533
- -0.079058126 -0.068112828 0.078552112 0.017463546 0.076586649 0.039413605 0.058458187 0.031154308 -0.20476808 -0.040426925 -0.075089358 0.05131292 -0.018822348 -0.10507257 -0.065638445 -0.22025211 0.22823155 -0.074477829 -0.044715412 -0.29426345 0.014740437 0.061749898 -0.028348656 0.094374709 -0.1213133 -0.043361176 -0.019528598 -0.12729611 -0.071996495 -0.19410886 -0.079546295 0.11088731 -0.072886936 -0.022928629 0.033518363 0.17180361 0.071637787 -0.16343698 -0.044027142 0.15953411 -0.069018066 0.088820755 0.10173126 -0.26732263 -0.07432352 -0.00030555148 -0.042626191 0.027449898 0.00091822527 -0.00954811 0.021389712 0.03496442 0.028405065 0.0030413093 0.076236688 0.043817665 0.018887976 0.025861619 0.067581728 0.10026429 -0.067385003 0.12042456 0.10781372 0.090119399 0.076613002 0.082853436 -0.15477555 -0.21216621 -0.00095344475 0.14239502 0.018421825 -0.23279676 0.12316633 0.15838407 0.04932227 -0.031270329 -0.10338145 0.049376607 -0.10069477 -0.19197069 0.13031174 -0.21461773 0.071620382 -0.027165292 0.13842519 -0.24970126 0.10596294 0.18307148 0.018129583 -0.14137506 0.26314756 -0.057249162 -0.0014467844 -0.25829458 -0.083336525 -0.086376049 -0.074781761 -0.032066029 -0.059049867 -0.13597727 -0.034190137 -0.033296034 -0.01936736 0.021792229 -0.062531658 -0.0082841748 -0.11681079 -0.026362889 -0.13371842 0.19170333 -0.071851932 -0.13227873 0.089325167 -0.072366625 -0.04185982 -0.045919117 0.11070871 -0.058361255 -0.18764395 -0.00028668021 0.02117552 0.077057876 0.062934496 -0.07539656 -0.0088724755 0.010355166 0.097158074 0.25604811 0.057066005 -0.001526501 0.14282544 -0.04985084 0.046112705 0.16025718 -0.093020916 -0.066606931 -0.11359073 -0.19255486 0.28710917 0.21740843 0.051711068 -0.25647432 0.24197459 -0.10055248 0.081475109 0.16985275 0.09109167 -0.074762814 -0.045430329 0.23993696 0.20569776 -0.054032754 -0.058696177 -0.096332975 -0.020454442 -0.061880555 -0.21362169 0.18527621 0.073947728 0.12726353
/ -0.07796894 -0.13557456 0.17171557 -0.13208349 -0.057002511 -0.06439174 0.15575224 -0.13132834 -0.19133948 0.21988097 -0.25670555 0.069672681 0.16990276 -0.2098624 0.10908513 0.10385178 0.27730477 0.1061376 -0.082282789 -0.29034674 0.10006983 -0.062329691 0.08955992 0.15109479 0.030832469 0.031626344 0.094228342 -0.17379954 -0.29106617 -0.14599147 -0.034193359 0.1634098 0.12099446 -0.03752343 0.1251612 -0.00023579143 -0.13762963 0.035274338 -0.1325646 0.0655265 -0.13192168 -0.12467696 0.12995124 -0.10642765 -0.028069822 0.086438626 0.14702027 -0.21112125 -0.0053265183 0.071749143 0.077946477 0.051733878 -0.042166896 -0.080357134 0.1332483 0.01649517 0.0046487111 0.010747572 0.17844668 0.016976269 0.043935608 0.26769266 0.12430757 -0.064122573 0.028692214 -0.028026661 -0.1583001 -0.3864086 -0.053328209 0.0017386667 -0.19067846 -0.1109625 0.13004254 -0.13503076 0.17738742 0.21757716 -0.0098671326 0.060818527 -0.25172913 -0.072598271 0.26332641 -0.31596091 0.090150312 -0.1703918 0.10091757 -0.043719605 0.075420514 0.20878193 0.13872382 -0.20844731 0.03282506 -0.084353365 -0.032282792 -0.2466833 0.0099332808 0.20581882 -0.056976911 0.060241126 -0.12742886 -0.15018965 -0.036382888 0.01329725 -0.11877656 0.17321935 -0.14744267 -0.033539113 0.028690245 0.077923439 -0.14256008 0.06539721 -0.092084825 -0.047539752 0.074147932 -0.016521245 0.065555766 0.033740491 0.32045174 -0.01599705 -0.10210066 0.033205479 0.25639394 0.21493734 0.20421992 -0.30152756 0.033336394 -0.086857513 0.12599717 0.14978312 0.034587484 0.12317193 0.15696891 -0.15696201 -0.013293489 0.10682063 0.13477206 0.047986928 -0.13474716 -0.14818579 0.24438581 0.35549849 0.070769437 -0.056659974 0.12688245 -0.2885721 -0.083665892 0.28506887 0.082598351 -0.23097123 -0.13321905 0.21539891 0.12825407 -0.20110343 -3.7892314e-05 0.0032879976 -0.2447051 -0.073184974 -0.11841271 0.10058896 0.29248679 0.028736418
4 -0.02956865 -0.1257218 0.15530561 -0.15493526 -0.055262629 -0.26652983 0.303188 -0.27946973 -0.17280771 0.33060285 -0.31554699 0.0036978573 0.27691928 -0.27170494 0.17733666 0.31406689 0.35388401 0.26459083 -0.076743372 -0.24662594 0.11184821 -0.24979235 0.052312918 0.10162038 0.1673653 0.049835559 0.17647243 -0.28673375 -0.33564141 -0.21919431 -0.16250613 0.13904607 0.15232694 0.07658276 0.24125984 -0.12228195 -0.36460465 0.13536412 -0.17086768 0.16900976 -0.089474417 -0.18628033 0.11189432 -0.042029623 0.0470507 0.11086337 0.17968115 -0.34842119 -0.030654205 0.10897023 0.12317298 0.051029764 -0.24168786 -0.041176192 0.23907571 0.1226758 -0.030017504 0.056055631 0.12868382 -0.13247336 0.039143026 0.36945644 0.050781626 -0.1840205 0.085372366 0.047094371 -0.16686668 -0.42757669 -0.11589411 -0.033807423 -0.34073374 -0.087313376 0.16502565 -0.34364045 0.24714765 0.29226327 -0.09476155 0.035232641 -0.27799577 -0.11669573 0.30071804 -0.51517528 0.12311473 -0.19447443 0.096938677 0.056692507 0.10037975 0.3499485 0.17835774 -0.24947764 -0.060730666 0.0023456737 -0.1297669 -0.14490622 0.046704385 0.34015927 -0.031063659 0.12580706 -0.29230586 -0.048806094 0.0093662161 0.10066786 -0.055315513 0.21212332 -0.098882027 -0.05631325 0.082735449 0.10512348 -0.19656841 -0.032781668 -0.13309935 -0.055224035 -0.0024801986 0.0861599 0.053524271 0.070324719 0.42427632 0.12791626 0.13061036 0.058859866 0.36479482 0.36744198 0.36366457 -0.37875861 0.027217334 -0.15841885 0.12527037 0.031237463 0.056037866 0.027359245 0.13710237 -0.14909253 -0.052013233 0.046970617 0.23996024 0.062979087 -0.2356308 -0.16957024 0.17960805 0.31624556 0.12010063 0.040765986 0.020514416 -0.22703555 -0.16224229 0.26523405 0.17074379 -0.31719735 -0.090560503 0.12342747 0.08350157 -0.2884995 -0.041400675 0.11767976 -0.37132722 0.012444131 -0.13675587 0.042519819 0.4066239 0.13351493
+ -0.046095733 -0.093945406 0.12771234 -0.070542015 0.010223348 -0.04396563 0.12866054 -0.079750448 -0.20807578 0.11291265 -0.17463085 0.044387262 0.096481614 -0.143363 -0.0026154208 -0.049821578 0.27601483 0.025529483 -0.070853315 -0.29167509 0.069136418 -0.022052055 0.014680902 0.13970868 -0.010786931 -0.019548466 0.033323243 -0.19598667 -0.19248116 -0.1875494 -0.081376925 0.16481991 0.024905674 -0.03371986 0.10072072 0.10397614 -0.043313894 -0.059299767 -0.086786292 0.12366746 -0.10831679 -0.018288594 0.12665103 -0.18712996 -0.029266242 0.034318447 0.048127748 -0.12658846 0.015649566 0.032812037 0.037681986 0.046888769 -0.03865635 -0.022810925 0.12929405 0.050083961 0.021020232 -0.0043625855 0.13211197 0.037271 -0.034135114 0.22025396 0.10387624 -0.01267114 0.055101912 0.061431568 -0.15326978 -0.30922109 -0.031573925 0.091798827 -0.10700349 -0.17450811 0.11041912 -0.018115923 0.14268517 0.10608001 -0.072200291 0.056740306 -0.18498017 -0.12535746 0.21206066 -0.31841907 0.083448566 -0.108108 0.12849072 -0.14530213 0.11080673 0.20638123 0.066079259 -0.21187742 0.14815728 -0.062036242 -0.049142323 -0.24371029 -0.050712273 0.080461808 -0.082988992 0.044853274 -0.094767161 -0.13680357 -0.034846202 0.010859689 -0.048454661 0.074971229 -0.09926372 -0.019660281 -0.044567775 0.039812062 -0.14028513 0.11578435 -0.10789626 -0.1076869 0.069191486 -0.042819154 -0.012812024 -0.011133951 0.22525629 -0.034882918 -0.11393695 0.012859335 0.16282922 0.15365382 0.14395742 -0.19779529 0.0012372411 -0.049693767 0.11956771 0.19041921 0.03738001 0.066063717 0.14475273 -0.11094813 0.0031838114 0.14025423 0.05840525 -0.0043865619 -0.14771876 -0.17946129 0.27967459 0.28230053 0.045458414 -0.16570802 0.16965491 -0.18464008 0.0051739174 0.24494548 0.088575527 -0.17609029 -0.08403264 0.21518734 0.16948828 -0.11102329 -0.043575626 -0.047846742 -0.13827096 -0.053466875 -0.14016326 0.166476 0.19537865 0.095142134
\ -0.089771226 -0.10248379 0.12101529 -0.049505632 0.01762799 0.022153426 0.088084556 -0.012870791 -0.19362794 0.064298503 -0.1519607 0.07465817 0.052339956 -0.14833626 0.0034248962 -0.10538648 0.24186216 -0.008812936 -0.054238766 -0.29434189 0.044566933 0.031380437 0.033393793 0.13032369 -0.069787718 -0.011879619 0.023974178 -0.13544838 -0.16595194 -0.16613835 -0.04131902 0.13204463 0.003704163 -0.045871817 0.05584687 0.10798813 0.0016971629 -0.087763257 -0.077300519 0.10490648 -0.096690506 0.0024681403 0.10763873 -0.21208864 -0.057655681 0.034048542 0.031593606 -0.058545411 -0.0020040742 0.029577443 0.039794296 0.039811946 0.031438559 -0.042176954 0.085944489 0.018899916 0.014356114 0.016964801 0.12362723 0.086639337 -0.017854407 0.16904557 0.12629613 0.034399524 0.048871938 0.017186588 -0.16207618 -0.28136346 -0.020838199 0.077122763 -0.058544688 -0.18163648 0.12279 0.05896844 0.094433695 0.066651203 -0.048848752 0.054532796 -0.17133242 -0.13944162 0.18228009 -0.23483263 0.071661979 -0.083962128 0.11997046 -0.17236941 0.088861495 0.17689522 0.075518847 -0.16215363 0.16872463 -0.077448443 0.0043889671 -0.26573333 -0.044293143 0.018328212 -0.065269098 -0.0052562058 -0.072812192 -0.15573019 -0.045432016 -0.021617699 -0.07452476 0.093429796 -0.10591292 -0.019416999 -0.062289532 0.0095979096 -0.12968461 0.14916065 -0.071092889 -0.091591589 0.093652762 -0.064946651 0.010397338 -0.015234969 0.19461291 -0.04950257 -0.18040256 0.016193435 0.11244126 0.12192851 0.10621779 -0.17182603 0.019881768 -0.027417637 0.10310942 0.22386152 0.046304189 0.061601147 0.15025905 -0.10600787 0.025255626 0.13961655 -0.0098268082 -0.010637932 -0.10566941 -0.17289026 0.27738696 0.29155481 0.059515662 -0.17984556 0.21397203 -0.19261989 0.018781431 0.22934072 0.078822404 -0.13594849 -0.094258979 0.24350564 0.17402703 -0.11305265 -0.026103133 -0.065327495 -0.10816751 -0.082571782 -0.18017903 0.15159877 0.15994497 0.071127921
# -0.072840855 -0.071317367 0.081152245 -0.009766846 0.041265003 0.021431012 0.067791782 0.0094801234 -0.16056781 0.012612361 -0.097355157 0.05591457 0.022632454 -0.11955784 -0.015609054 -0.12837212 0.19831124 -0.023867562 -0.034171347 -0.24692194 0.021211436 0.030498786 0.0055638347 0.085191175 -0.078551486 -0.015874289 0.015728446 -0.10847541 -0.10512239 -0.14899194 -0.058585759 0.090620555 -0.026845269 -0.026276315 0.041015774 0.1055214 0.014759718 -0.10300063 -0.049818009 0.12331597 -0.062606305 0.033933185 0.078762822 -0.19911416 -0.054075748 0.016883489 -0.0047021843 -0.013802656 -0.0070186756 0.016260339 0.029043445 0.022858052 0.020812539 -0.020282336 0.066405639 0.030701689 0.0047464827 0.033849437 0.07306242 0.073351957 -0.02723038 0.12106057 0.09654671 0.053932823 0.055818327 0.040265996 -0.13693182 -0.2086439 -0.010873561 0.084198304 -0.020820322 -0.17435089 0.11697957 0.086730748 0.053665739 0.013105055 -0.068714589 0.03366578 -0.11821907 -0.14692661 0.1290587 -0.19337098 0.063393772 -0.046613365 0.1091287 -0.17451856 0.083159126 0.16234638 0.044512589 -0.11871167 0.17692141 -0.049285848 -0.00048454752 -0.21368676 -0.046356846 -0.029539045 -0.054473322 -0.022381114 -0.073388822 -0.11918402 -0.035856757 -0.019122532 -0.036945157 0.062241014 -0.071134545 -0.017872125 -0.075171597 -0.012137339 -0.11330692 0.14265785 -0.052782163 -0.085889228 0.075018287 -0.057213791 -0.0093162702 -0.022391317 0.1353281 -0.034644764 -0.14369689 0.01109626 0.054365799 0.095359154 0.078327984 -0.10395288 0.0098794876 -0.005885656 0.076271832 0.19316426 0.049279299 0.01118144 0.12155474 -0.066324636 0.034974087 0.12053034 -0.050148327 -0.027051719 -0.090391092 -0.16123064 0.23564944 0.21458803 0.051826235 -0.17176762 0.18994655 -0.12131865 0.032980803 0.16783337 0.078924984 -0.088632762 -0.05323584 0.20496114 0.15456824 -0.087697864 -0.035379708 -0.058762152 -0.058839623 -0.066525847 -0.1831966 0.13074504 0.1066105 0.089681014
5 -0.066201866 -0.13874891 0.15792871 -0.12170321 -0.014192557 -0.14766242 0.24143392 -0.17946467 -0.22702593 0.23094033 -0.28222045 0.040093616 0.20316978 -0.25274247 0.10621994 0.1142139 0.36400735 0.15213338 -0.084763944 -0.33366254 0.097418763 -0.12948081 0.0409423 0.14096597 0.052345987 0.020081211 0.12462717 -0.2636914 -0.30315274 -0.24066912 -0.12861593 0.16332053 0.090079717 0.022849182 0.18174383 -0.0022345094 -0.21999933 0.022744738 -0.14981872 0.1745958 -0.11133445 -0.10262971 0.13613282 -0.15578288 -0.009664244 0.084214069 0.126101 -0.24241567 -0.016690442 0.080323659 0.097774722 0.061227325 -0.13227256 -0.045593664 0.20265019 0.091225199 -0.01201076 0.044534869 0.14878227 -0.029951198 0.0089856358 0.32713559 0.10652275 -0.082731761 0.088654421 0.049334869 -0.20237999 -0.43392217 -0.081450291 0.037320726 -0.23500019 -0.1710373 0.17632435 -0.16848776 0.20662145 0.21078792 -0.093271472 0.048679478 -0.27158517 -0.1620805 0.29264557 -0.46232602 0.11395501 -0.16617011 0.13651755 -0.07856407 0.1146941 0.3228958 0.1457274 -0.25094712 0.080355547 -0.046536904 -0.079196639 -0.25359163 0.00044189394 0.2135067 -0.055857394 0.073009647 -0.22040103 -0.12286413 -0.020434784 0.053204555 -0.07286346 0.17621322 -0.12096426 -0.044821691 0.0093712145 0.068397477 -0.20018888 0.074850366 -0.12585349 -0.096763439 0.049532317 0.014691448 0.031190697 0.028608533 0.37163526 0.041042075 -0.030419758 0.044328865 0.28922018 0.29491949 0.28629625 -0.32596728 0.022718705 -0.10570496 0.14155088 0.16097665 0.063296571 0.048036855 0.17034249 -0.14963029 -0.016429944 0.11880987 0.13819434 0.023803962 -0.20685987 -0.21378228 0.28685164 0.36360973 0.10338555 -0.09245193 0.13882992 -0.25532401 -0.082136631 0.29925692 0.15801397 -0.27110246 -0.10825182 0.21852282 0.1594287 -0.23970364 -0.040355418 0.026769824 -0.29207188 -0.042719804 -0.19537476 0.12036297 0.3399905 0.12957056
a -0.11329523 -0.13781488 0.17538136 -0.050937913 0.059051264 0.016283246 0.15547305 -0.029354846 -0.32662347 0.074750468 -0.22151288 0.092610858 0.070106983 -0.20816644 -0.037349455 -0.20404302 0.40140662 -0.027109848 -0.085144274 -0.47805551 0.059569884 0.04570777 0.014290375 0.18941386 -0.10565067 -0.032330927 0.024690727 -0.2527664 -0.23325536 -0.30552411 -0.11294321 0.21338351 -0.027864143 -0.047045052 0.10898341 0.20912771 0.016324101 -0.17000882 -0.10044298 0.21811399 -0.14194968 0.049751207 0.18161079 -0.354505 -0.083121233 0.029833406 0.02424721 -0.086337894 0.0063481163 0.034223661 0.060581535 0.065047719 0.0054682577 -0.040473539 0.15498017 0.060615346 0.030142933 0.023935752 0.1694302 0.11862817 -0.068235047 0.27610588 0.18313441 0.055617306 0.10742161 0.096534356 -0.25079808 -0.43230262 -0.026644981 0.17468424 -0.067420542 -0.32356232 0.20298378 0.11498248 0.14901839 0.069546126 -0.12421506 0.088056676 -0.24937792 -0.25478783 0.27214101 -0.42039856 0.11902319 -0.11024308 0.20742954 -0.31823644 0.17188394 0.31230739 0.081774309 -0.27695146 0.32418194 -0.10795399 -0.028123066 -0.41543067 -0.097537905 0.0030937712 -0.12017827 -7.6111952e-05 -0.13267951 -0.22553204 -0.054333411 -0.016604092 -0.072685204 0.092457555 -0.14211532 -0.026951993 -0.1185177 0.010754841 -0.2228958 0.24809854 -0.1366955 -0.17586488 0.13205783 -0.093080766 -0.029003466 -0.040377848 0.28828987 -0.073407583 -0.2543112 0.01295231 0.15703368 0.19632137 0.16900802 -0.22813764 0.012312121 -0.036085013 0.17457859 0.36570257 0.08409749 0.050505631 0.2379081 -0.1358283 0.038150828 0.24497414 -0.028076971 -0.053999469 -0.20013733 -0.29473525 0.45601252 0.42319649 0.089800708 -0.31976992 0.33303961 -0.25612414 0.050085362 0.34614694 0.14833878 -0.20142934 -0.12261478 0.36823845 0.29124385 -0.15622567 -0.064194418 -0.12097749 -0.14682712 -0.1072941 -0.28801337 0.27353287 0.24205837 0.16580974
o -0.10917562 -0.067255795 0.074128196 0.041664772 0.10226547 0.097834066 0.033556532 0.093115777 -0.20798168 -0.096494727 -0.047925182 0.074695073 -0.058370888 -0.11386855 -0.083497018 -0.30920184 0.22603855 -0.11068354 -0.033806365 -0.31995285 -0.0058771209 0.11438178 -0.027706677 0.099328607 -0.17163792 -0.049412481 -0.034191985 -0.099042572 -0.044310424 -0.19271988 -0.072118185 0.095666386 -0.11315395 -0.037940744 0.0043700626 0.21071675 0.12781532 -0.20823485 -0.025435939 0.16510275 -0.059805155 0.12655328 0.091545925 -0.3253409 -0.09916003 -0.0095006684 -0.077645905 0.095205583 -0.0081562866 -0.013249444 0.019859161 0.024852222 0.081383325 -0.011027141 0.052472848 0.033768501 0.012467261 0.051397879 0.066849761 0.14890097 -0.065580659 0.086808845 0.13551699 0.1400241 0.080075048 0.063854516 -0.17526254 -0.20511678 0.008020374 0.15783192 0.07192219 -0.26414892 0.14169613 0.24990211 0.013721617 -0.079145283 -0.10088041 0.046025477 -0.093480542 -0.22973245 0.11734775 -0.17055592 0.065201387 -0.0072550974 0.14584343 -0.30675721 0.11521611 0.17638673 0.021915829 -0.11703358 0.31193277 -0.064287752 0.031629346 -0.29234567 -0.09417256 -0.16236083 -0.081102051 -0.081044562 -0.049270317 -0.15816614 -0.053832673 -0.052649725 -0.027841447 0.022075027 -0.064104177 -0.009096412 -0.15285595 -0.058134194 -0.12804823 0.24967033 -0.05810516 -0.12987906 0.11203437 -0.1018952 -0.044077698 -0.064640194 0.088593364 -0.075372495 -0.25279522 0.0014406003 -0.032136697 0.050508127 0.022549272 -0.050474636 0.0069719143 0.032829855 0.092844583 0.30653581 0.070711009 -0.015206898 0.15182526 -0.046223491 0.066784516 0.1761993 -0.16409442 -0.081957161 -0.095396765 -0.21671054 0.32181725 0.23355281 0.057709847 -0.30032918 0.30268195 -0.095853359 0.10989779 0.17102715 0.095732234 -0.046182171 -0.044602681 0.28297529 0.22879253 -0.054169603 -0.059184283 -0.12469439 0.020417674 -0.094097652 -0.26620448 0.20063685 0.044649765 0.13150547
s -0.087166272 -0.067213804 0.068369769 0.012769088 0.069817431 0.072827384 0.03607291 0.058963869 -0.17352152 -0.046587553 -0.063564375 0.063252859 -0.024837175 -0.10407276 -0.057233572 -0.22185238 0.18825133 -0.076295972 -0.036038838 -0.26432607 0.01229567 0.080836222 -0.0099271834 0.094841428 -0.13015835 -0.034474071 -0.018062001 -0.089788429 -0.069417194 -0.15354192 -0.046737522 0.092460789 -0.065830611 -0.038545564 0.010875729 0.1548081 0.084890321 -0.15168938 -0.031861871 0.12467765 -0.065933377 0.08277069 0.080784954 -0.25135535 -0.074460566 0.0039076824 -0.037900422 0.049721159 -0.0036346246 -0.0064036744 0.021400606 0.026863407 0.065933421 -0.019735089 0.046557974 0.021958459 0.012891241 0.03176789 0.072761603 0.11664606 -0.043465953 0.085522316 0.11211838 0.099142179 0.056743581 0.041116938 -0.14550374 -0.19247505 0.0055938461 0.11965708 0.037303209 -0.20902494 0.11031295 0.17567825 0.029089319 -0.031612184 -0.071654782 0.043237947 -0.098086849 -0.17195703 0.11002249 -0.15421134 0.053417444 -0.01999132 0.11645999 -0.2371898 0.085254669 0.14349757 0.027971834 -0.11336239 0.23749356 -0.060191885 0.024158813 -0.250752 -0.069543041 -0.095947556 -0.065578133 -0.051491909 -0.037338983 -0.13522723 -0.042536121 -0.039716102 -0.036283597 0.035843324 -0.069212727 -0.011781162 -0.11091271 -0.034139961 -0.10862261 0.1905001 -0.047184501 -0.10207044 0.089655258 -0.079358257 -0.028942775 -0.043600742 0.097483195 -0.066020645 -0.2089949 -0.00061357417 0.0026022941 0.050151534 0.037430763 -0.071573451 0.0080732051 0.015242357 0.084417343 0.24646233 0.052155465 0.007016812 0.12654205 -0.055471245 0.050171923 0.14410713 -0.10316241 -0.05326014 -0.080349855 -0.17064998 0.26481971 0.2164291 0.041614544 -0.22878061 0.24270166 -0.10846507 0.070879422 0.1625654 0.069596261 -0.057113357 -0.051338155 0.23468307 0.18056934 -0.054664854 -0.039086547 -0.094821237 -0.014273806 -0.08271683 -0.2015367 0.15910234 0.063700043 0.08990518
B -0.10813284 -0.10743201 0.12135389 -0.018271104 0.069901854 0.043644585 0.095518842 0.016594384 -0.25766465 0.0060860086 -0.14221187 0.081772327 0.020800939 -0.17148736 -0.039562825 -0.21996137 0.30168915 -0.048298907 -0.056406658 -0.37172404 0.03396257 0.054487985 -0.0061374125 0.13579716 -0.12107594 -0.036050413 0.010756923 -0.16868445 -0.14986181 -0.23173004 -0.083565168 0.14845772 -0.056249864 -0.040311445 0.058458701 0.17961544 0.041698903 -0.16084084 -0.067564458 0.18491858 -0.10087959 0.068795659 0.12993288 -0.31278777 -0.083335951 0.02304849 -0.009159917 -0.01364537 -0.0066690389 0.014148657 0.042697951 0.049670048 0.034698635 -0.026696587 0.10801239 0.047060303 0.012628202 0.040888615 0.11473642 0.12572058 -0.047251381 0.18133013 0.14893179 0.082360961 0.083573878 0.067055218 -0.21059698 -0.32058746 -0.013583462 0.15012765 -0.015617426 -0.27633396 0.16060928 0.14777583 0.084459573 0.018021423 -0.10257242 0.062504031 -0.17849979 -0.22651033 0.19970809 -0.29495856 0.088005953 -0.066381842 0.164653 -0.28250685 0.12988913 0.23310003 0.05774229 -0.18938825 0.28675163 -0.08150395 0.0036977057 -0.33683202 -0.078586169 -0.054818243 -0.083563782 -0.035618555 -0.10076834 -0.17871726 -0.051122606 -0.03368986 -0.055876493 0.068266891 -0.10554814 -0.019783234 -0.11794414 -0.025276881 -0.16836062 0.22629105 -0.09157376 -0.14469217 0.11231168 -0.086632319 -0.023874696 -0.046234239 0.19683303 -0.06290777 -0.23450582 0.0082895234 0.07305409 0.13397408 0.10628196 -0.15659884 0.010360094 -0.010291434 0.12994394 0.30773208 0.079670683 0.02022695 0.18268248 -0.09957733 0.048194882 0.19225039 -0.074043408 -0.052867599 -0.14461003 -0.24309471 0.3631523 0.32589009 0.070901498 -0.28030363 0.30051449 -0.18235658 0.063367411 0.25181675 0.12084524 -0.13112457 -0.080314241 0.30742952 0.24548098 -0.11263306 -0.057981223 -0.10263296 -0.081225127 -0.092019156 -0.26278365 0.21822873 0.15567797 0.14059329
r -0.10923389 -0.097762525 0.11131243 -0.01375494 0.070311114 0.043724939 0.088416733 0.020826416 -0.25009638 -0.0048949164 -0.13465838 0.076623514 0.017999901 -0.15686633 -0.047214303 -0.22488444 0.28877363 -0.05351859 -0.053359833 -0.36476851 0.026556829 0.061360072 -0.0087098358 0.12859611 -0.13084635 -0.037014291 0.0049011591 -0.1601647 -0.13618213 -0.22488303 -0.078893691 0.13990754 -0.059407949 -0.040943794 0.055894222 0.17476264 0.047595397 -0.16404921 -0.066176467 0.17994598 -0.096506618 0.073307671 0.12149139 -0.30668789 -0.08399497 0.019798866 -0.013894111 -0.002423621 -0.0039093783 0.014850071 0.043103952 0.04280746 0.041005436 -0.020474596 0.10079092 0.047806609 0.018465556 0.038585365 0.11281458 0.12362693 -0.049447283 0.17120703 0.14121591 0.087238476 0.082050428 0.06597124 -0.19991724 -0.29921469 -0.012923239 0.14050616 -0.0097382618 -0.26760557 0.15641986 0.15304361 0.075037569 0.0067452057 -0.10287723 0.057656728 -0.16611414 -0.22560145 0.18918228 -0.27695781 0.088273712 -0.05908078 0.16125607 -0.27794713 0.12407084 0.22237626 0.052239016 -0.17876446 0.28493983 -0.078554899 0.0039916621 -0.32862243 -0.077179827 -0.059053451 -0.08688695 -0.035050217 -0.089513279 -0.1720103 -0.047279164 -0.031158304 -0.052237771 0.066565916 -0.095220029 -0.020247644 -0.12421907 -0.025179505 -0.16113882 0.22261056 -0.084754884 -0.13841239 0.10829355 -0.084603049 -0.022461988 -0.045949478 0.18039891 -0.06262476 -0.23180452 0.0063352492 0.065595977 0.11658798 0.10173342 -0.1373807 0.01069714 -0.0049687531 0.12171744 0.30335897 0.073902644 0.022147486 0.1744034 -0.093297333 0.054316092 0.18607941 -0.079959624 -0.057357948 -0.13675754 -0.23423775 0.35955971 0.3120431 0.067961879 -0.27851951 0.29375875 -0.16804552 0.069139346 0.2467359 0.11040219 -0.12475178 -0.074879907 0.2959401 0.23498835 -0.10475038 -0.053026866 -0.10612001 -0.070057526 -0.096556664 -0.2562502 0.2082334 0.13909015 0.13596487
P -0.056237873 -0.064313166 0.076159425 -0.032840997 0.023172619 -0.0016370772 0.076736644 -0.026874296 -0.14315441 0.044519678 -0.1044301 0.042372387 0.044823628 -0.1023825 -0.0027641666 -0.070363156 0.17781799 0.0052492395 -0.038547944 -0.20625211 0.036351617 0.0083193379 0.0084731784 0.086059146 -0.044882163 -0.01463598 0.024431897 -0.11224174 -0.11130483 -0.12541869 -0.044541825 0.091274306 -0.003729064 -0.017955331 0.052335951 0.074926227 -0.012316118 -0.057987731 -0.056840584 0.090756312 -0.066518299 0.0066262996 0.079378702 -0.14862554 -0.037224684 0.022058886 0.022985034 -0.046124026 -0.0027344676 0.020833813 0.033845391 0.031252239 -0.00066802284 -0.016984085 0.073560193 0.031919904 0.0035055673 0.014110547 0.074702665 0.044605367 -0.016447781 0.12825099 0.080007277 0.015842894 0.049054999 0.033736203 -0.11582439 -0.2026566 -0.018727724 0.065840259 -0.04609973 -0.1361571 0.088903554 0.032780141 0.069241986 0.049374305 -0.054184977 0.036085419 -0.1184115 -0.10953535 0.12905127 -0.18833594 0.052158721 -0.05755743 0.090591155 -0.12728646 0.063494578 0.13610925 0.048619159 -0.12001254 0.12785612 -0.042421304 -0.0071278857 -0.1842147 -0.030559717 0.020306773 -0.04479919 0.0052973218 -0.06427943 -0.096228264 -0.023320455 -0.0066244886 -0.042700503 0.060205258 -0.066457883 -0.013579514 -0.045798302 0.0045466819 -0.097996064 0.099411972 -0.051516853 -0.074179746 0.056375019 -0.039018925 -0.0024261617 -0.0097131841 0.14507322 -0.025600731 -0.1034896 0.0079053566 0.078721516 0.098029532 0.083685517 -0.11737543 0.012775143 -0.019545041 0.077466227 0.15570776 0.038836729 0.026990443 0.10076645 -0.066005409 0.018281229 0.097968608 -0.0026037574 -0.012329295 -0.088650696 -0.13048321 0.1980748 0.19124708 0.042403877 -0.12893997 0.14616016 -0.12658015 0.010322951 0.15534016 0.067601658 -0.096557312 -0.054884616 0.15986875 0.12620971 -0.084643714 -0.024626093 -0.036989592 -0.084893614 -0.045089696 -0.12886162 0.10471896 0.11524703 0.068720132
6 -0.07502149 -0.10866639 0.12084181 -0.062230211 0.016746309 -0.049166303 0.14516477 -0.077513821 -0.20472121 0.11179864 -0.19194689 0.051805709 0.10723441 -0.18380751 0.035405125 -0.025159253 0.28079888 0.050355688 -0.063029371 -0.29997721 0.061564639 -0.034820419 0.022665855 0.12054276 -0.023010828 -0.00086292077 0.06280221 -0.18241704 -0.2021911 -0.19611467 -0.087807976 0.13915253 0.024088535 -0.0072315237 0.10788901 0.065126143 -0.082891382 -0.053804301 -0.094535016 0.15054098 -0.091415137 -0.023472313 0.11132832 -0.19181103 -0.039478198 0.050479706 0.055362009 -0.11882565 -0.01280428 0.045565408 0.060483422 0.047790051 -0.042033907 -0.031883068 0.12877414 0.05915565 0.00043453014 0.033295128 0.11570802 0.036226638 -0.013196357 0.22045113 0.1096639 -0.008124318 0.072817124 0.048599623 -0.17218463 -0.32802689 -0.043932129 0.072613835 -0.11952017 -0.18448974 0.14199489 -0.021473156 0.13208002 0.10715277 -0.078491151 0.043560009 -0.19480842 -0.15969011 0.21344969 -0.32745263 0.08575286 -0.10554285 0.12627892 -0.14561945 0.10052425 0.23771149 0.09483853 -0.19139116 0.14454316 -0.056240626 -0.035796747 -0.24638286 -0.026320601 0.083621092 -0.06133252 0.019180993 -0.14024006 -0.12690055 -0.029199857 0.012752042 -0.056487665 0.11069654 -0.10151342 -0.029603785 -0.043134954 0.025330029 -0.1593086 0.12328281 -0.087947488 -0.098646656 0.068731949 -0.028190011 0.006107694 -0.0022530085 0.25008792 -0.007811476 -0.10589299 0.025065135 0.16235983 0.18675873 0.17358911 -0.21407655 0.017139455 -0.055737142 0.11712454 0.19554079 0.058604252 0.035806753 0.1512083 -0.11036579 0.0095928954 0.12792829 0.04090146 -0.0066457153 -0.15090694 -0.18865402 0.27304709 0.29762879 0.076289088 -0.15088984 0.18254292 -0.19172196 -0.0144036 0.24272646 0.11581571 -0.17812501 -0.08252006 0.22066802 0.1648512 -0.15610072 -0.036985673 -0.025206082 -0.17143093 -0.056155432 -0.18856418 0.14006115 0.22111653 0.11158122
I -0.048683483 -0.051851206 0.058688927 -0.012742273 0.031750042 0.013208702 0.050846789 0.0020414363 -0.11634108 0.0095309597 -0.068305857 0.037513021 0.016645757 -0.077955276 -0.013746206 -0.086420268 0.13871823 -0.013262056 -0.02718956 -0.16852026 0.014848703 0.019054588 0.0041354033 0.062663078 -0.050289121 -0.016108511 0.0049941097 -0.075596116 -0.074591659 -0.10801886 -0.036148947 0.068454728 -0.022647634 -0.019103501 0.026848381 0.075626664 0.015765466 -0.066525474 -0.034071375 0.081750087 -0.047710683 0.024051769 0.055884317 -0.13937545 -0.039628021 0.011277827 -0.001951159 -0.011499501 -0.0028518685 0.011005831 0.024465298 0.018664828 0.012119815 -0.01407015 0.051713623 0.024920255 0.0082081947 0.020495314 0.057932448 0.053412791 -0.020443114 0.085994571 0.069389947 0.03318214 0.039450862 0.030929567 -0.096268058 -0.15020232 -0.0067587728 0.063079953 -0.015209492 -0.12134724 0.078991055 0.062444489 0.039577466 0.014331955 -0.049454954 0.027608609 -0.086798623 -0.10282736 0.088775635 -0.13908716 0.04330739 -0.033992384 0.072038822 -0.12240641 0.056604277 0.10868467 0.030527746 -0.088118017 0.1251722 -0.034387495 0.00016753886 -0.14926435 -0.032661632 -0.016818067 -0.040639263 -0.013177307 -0.050626133 -0.084283948 -0.020657998 -0.013089529 -0.030079424 0.039719194 -0.046206556 -0.0091193402 -0.052456126 -0.0090151476 -0.075474039 0.10141578 -0.041437894 -0.065186106 0.052463982 -0.035950534 -0.00738136 -0.017646102 0.092780292 -0.023039903 -0.099811338 0.0044384832 0.038159367 0.060507502 0.052104797 -0.078065775 0.0041382113 -0.0093108639 0.057573035 0.13775775 0.033267055 0.0090796687 0.083813734 -0.046984851 0.022258192 0.086049549 -0.027742194 -0.019248219 -0.064141378 -0.10725462 0.16662112 0.14895827 0.033251952 -0.12289238 0.13382851 -0.086551331 0.024989428 0.11864211 0.052756295 -0.061434116 -0.036763746 0.13786763 0.11090198 -0.056148689 -0.026347347 -0.040888935 -0.04366203 -0.045704234 -0.11673128 0.096255079 0.073232986 0.060599368
7 -0.05484549 -0.067391165 0.071117282 -0.021139685 0.029518941 0.0076208748 0.06680429 -0.01330222 -0.14081234 0.032272652 -0.098341033 0.041247837 0.033450361 -0.10313939 -0.0041836426 -0.08433345 0.17601238 -0.0018929709 -0.038966749 -0.20889077 0.030161887 0.011061466 0.0067725694 0.081206687 -0.051227886 -0.010157763 0.018133815 -0.10457817 -0.10561154 -0.12554224 -0.045092545 0.085380584 -0.012761359 -0.018250605 0.043316301 0.077640094 -0.0061890925 -0.068592295 -0.048329677 0.096166842 -0.057730019 0.018723477 0.074724831 -0.15856373 -0.040895473 0.017979506 0.013950542 -0.036124546 -0.0061484701 0.019632019 0.031963032 0.029879794 0.0038135697 -0.01714249 0.067348868 0.025587963 0.0074617695 0.024487628 0.070736043 0.05427105 -0.017584015 0.11548706 0.080800124 0.029263321 0.047485609 0.033045322 -0.11723072 -0.19551411 -0.011968391 0.065933287 -0.036775161 -0.13807473 0.094402589 0.049230017 0.064386554 0.036406297 -0.055694602 0.031781808 -0.11345255 -0.11665343 0.11914347 -0.18211836 0.051955752 -0.051124759 0.09176226 -0.1382976 0.067975275 0.13637112 0.046279594 -0.11524045 0.13794889 -0.044715926 -0.0067331297 -0.18536274 -0.034896299 0.0011255032 -0.0479858 -0.0094237681 -0.067426033 -0.097180374 -0.028497882 -0.0084565505 -0.038124658 0.057956677 -0.064502679 -0.017062688 -0.054183207 -0.0017665033 -0.097656362 0.10852487 -0.048066389 -0.076964743 0.059038986 -0.042551745 -0.0068519628 -0.013857093 0.13398381 -0.027278356 -0.11303521 0.0067917989 0.067057416 0.088946849 0.080982842 -0.1107871 0.010978901 -0.01680287 0.072777763 0.15961844 0.039877601 0.023587478 0.10146856 -0.065906584 0.022930097 0.1011886 -0.018877434 -0.020982124 -0.083021961 -0.1319347 0.19566323 0.19203797 0.042977955 -0.13497053 0.14812405 -0.11474707 0.018480392 0.15122426 0.071144953 -0.094114341 -0.051573344 0.16432951 0.12350424 -0.077490315 -0.023685584 -0.043665912 -0.070808969 -0.048052669 -0.13889027 0.10752051 0.10979793 0.07174173
8 -0.04192004 -0.04625497 0.055132624 -0.015700838 0.019812645 0.0030735561 0.050758503 -0.012299431 -0.10119063 0.023527846 -0.073153272 0.029001804 0.027048858 -0.0724167 -0.00034578994 -0.05657139 0.12766419 -0.00096457649 -0.029014457 -0.15032987 0.023067707 0.0056614596 0.0041131512 0.060210686 -0.032039821 -0.0077008018 0.015182621 -0.077466734 -0.074614629 -0.089283384 -0.035516296 0.063159265 -0.0060113161 -0.012345395 0.032934576 0.05552955 -0.0078592561 -0.047410354 -0.036778834 0.067760736 -0.043118197 0.011149035 0.051194109 -0.10995359 -0.029285241 0.015232763 0.012071786 -0.02510529 -0.0052447179 0.012235766 0.025248095 0.022168651 0.0026834041 -0.016783874 0.050577514 0.022950165 0.0041266917 0.016445985 0.052571621 0.033955261 -0.010584062 0.086107276 0.054441899 0.019649187 0.036467969 0.022621917 -0.08328639 -0.14329882 -0.011284684 0.043837272 -0.026339088 -0.099835977 0.064069904 0.030519933 0.048522878 0.026953232 -0.039288081 0.021047899 -0.083288908 -0.085742168 0.09093301 -0.12822539 0.038274549 -0.036088616 0.066655956 -0.092596479 0.050825175 0.098301895 0.03212478 -0.082745977 0.095232837 -0.032992892 -0.0041042436 -0.12778707 -0.024216317 0.0079633016 -0.035362445 -0.00052632793 -0.045632824 -0.071040533 -0.018164663 -0.0031869283 -0.02512308 0.04018357 -0.048164289 -0.013667133 -0.033502553 -0.0017242712 -0.072486654 0.078528419 -0.034869649 -0.051620584 0.043855298 -0.025497094 -0.0012494393 -0.010936924 0.1012769 -0.020864345 -0.076791048 0.0067257802 0.054866072 0.067474224 0.061719324 -0.079629116 0.0064262478 -0.013243012 0.051648706 0.11190736 0.029575618 0.01487729 0.072233982 -0.045973502 0.013136546 0.067514032 -0.0075019705 -0.011842403 -0.058482699 -0.092848361 0.14121705 0.13704024 0.027976142 -0.092538431 0.10299554 -0.086944088 0.0076818014 0.1078135 0.052025218 -0.067048922 -0.035900015 0.11669882 0.091367774 -0.062027153 -0.016320977 -0.031971283 -0.053766962 -0.033547718 -0.099365987 0.07395833 0.080607362 0.049410194
M -0.029684082 -0.031707969 0.035746027 -0.0057458626 0.017538991 0.0090901693 0.027299739 -0.0027093398 -0.069143236 0.0064017028 -0.040414277 0.021346688 0.012475936 -0.04566244 -0.010857806 -0.053398874 0.080867775 -0.0068735755 -0.014540417 -0.10320539 0.012873322 0.013221263 0.00087226165 0.037587751 -0.028922576 -0.0060140798 0.0058994242 -0.04956039 -0.041526545 -0.062685668 -0.022816468 0.043731317 -0.010428427 -0.013360601 0.018469682 0.044543393 0.0070399046 -0.042211615 -0.023468183 0.049344361 -0.028364513 0.016668413 0.032522291 -0.078387842 -0.020407645 0.006282032 0.0026742846 -0.011353419 -0.0031133424 0.0060524573 0.014490115 0.012765365 0.010474302 -0.010169971 0.030315094 0.012952822 0.0062807128 0.011910989 0.03383781 0.029589929 -0.010363526 0.054701183 0.042104393 0.01716315 0.024208074 0.019480025 -0.05679879 -0.087504111 -0.007665542 0.039704666 -0.0082831141 -0.070459865 0.044081464 0.033419337 0.026223298 0.0094378591 -0.028210174 0.016405405 -0.050084613 -0.061318342 0.055135112 -0.081444889 0.025451055 -0.020477429 0.044138424 -0.073279187 0.036229279 0.065960392 0.019077277 -0.052416746 0.074168243 -0.018580301 -0.003397157 -0.089412846 -0.016684232 -0.0058546113 -0.020691207 -0.0041756015 -0.024507225 -0.049867958 -0.013940018 -0.010122268 -0.014941107 0.018905701 -0.027595803 -0.0071443627 -0.031385437 -0.0062102564 -0.04361783 0.057349462 -0.023806594 -0.038116649 0.028506907 -0.025234681 -0.0079243267 -0.0070126257 0.054724224 -0.013899926 -0.057342138 0.00022338067 0.024829209 0.040889218 0.031432975 -0.044072364 0.0017802428 -0.0024255714 0.03318046 0.08022169 0.018406164 0.0081827734 0.047401946 -0.027164681 0.010647235 0.049292684 -0.0153969 -0.011800925 -0.04043765 -0.065890893 0.095148981 0.09228874 0.020119959 -0.070398398 0.079785697 -0.050236892 0.015966116 0.069692217 0.03100344 -0.041191034 -0.026384516 0.082238272 0.063304737 -0.032273438 -0.011661446 -0.028846979 -0.028742 -0.026886478 -0.066286229 0.05907502 0.044560358 0.033354919
g -0.028056519 -0.03281204 0.036506411 -0.0082683526 0.015432097 0.0056339223 0.032895908 -0.0034669393 -0.066842496 0.0080400724 -0.045818098 0.023897313 0.015690716 -0.046021629 -0.0057579954 -0.049132407 0.083674215 -0.0048584766 -0.017910089 -0.099491432 0.010119063 0.0091983704 0.004981955 0.040503334 -0.025311273 -0.0092920819 0.0079241795 -0.048841428 -0.048613612 -0.063377544 -0.023571707 0.039666153 -0.0092199845 -0.01160151 0.018906094 0.042621177 0.0039264802 -0.038015779 -0.022223787 0.048551075 -0.027057577 0.010382365 0.034916531 -0.081798151 -0.018369319 0.0085711563 0.0012036944 -0.0093640666 -0.00028320041 0.0080976756 0.010238844 0.014925506 0.0041815215 -0.0090547856 0.028378516 0.01073816 0.005182134 0.0095447162 0.030973079 0.029905502 -0.012020131 0.052692268 0.040801469 0.013025778 0.021170013 0.014901977 -0.056663338 -0.089278623 -0.0077964119 0.037798181 -0.011226376 -0.067494877 0.046625134 0.028287187 0.030590907 0.013672506 -0.029678112 0.018852331 -0.052564081 -0.05625435 0.059682216 -0.08575023 0.02278357 -0.019923545 0.047457606 -0.068301953 0.032278422 0.068241119 0.020584943 -0.054127827 0.068490818 -0.021258555 -0.0045364811 -0.086577594 -0.016553782 -0.0041796267 -0.023177704 -0.0057082963 -0.029737959 -0.047037557 -0.012222419 -0.0038968802 -0.018805189 0.021082459 -0.02937994 -0.0066034398 -0.02845506 -0.0025263627 -0.044359241 0.053733166 -0.027078522 -0.034878615 0.026546476 -0.020321963 -0.0054660728 -0.011682606 0.057368226 -0.017600032 -0.057266764 0.0056348196 0.026263019 0.040209208 0.036145248 -0.045033101 0.0052874973 -0.0046823709 0.034696847 0.078838296 0.019599352 0.0081424145 0.049461979 -0.028107032 0.010771065 0.052231483 -0.0094969813 -0.011947082 -0.037373967 -0.065230377 0.099371664 0.087292686 0.022391872 -0.071490608 0.076258168 -0.054008894 0.013160714 0.069715284 0.034811083 -0.041021798 -0.021858394 0.081385337 0.061314374 -0.037138306 -0.016927149 -0.026104758 -0.030488171 -0.022975717 -0.069809839 0.057198457 0.051102966 0.034687415
K -0.028414734 -0.026415307 0.03211239 -0.0033982289 0.018398641 0.010555302 0.027189109 5.35974e-05 -0.060175505 0.0047293724 -0.036863104 0.016858347 0.010621196 -0.038591772 -0.0071285665 -0.046946239 0.071675159 -0.009407809 -0.015328626 -0.087701336 0.0059806169 0.015198432 0.0034164924 0.03311092 -0.029444188 -0.004962876 0.0021819267 -0.042797264 -0.038845077 -0.0553452 -0.018741272 0.037097622 -0.0098377652 -0.006956852 0.016524985 0.041308023 0.0069063497 -0.03938739 -0.015038247 0.043063819 -0.02480647 0.016127434 0.028538076 -0.075762995 -0.019997869 0.0029162581 -0.00014451682 -0.0079677524 -0.0014928553 0.0074533657 0.011525492 0.010677218 0.0071396651 -0.0042767655 0.029446915 0.010231558 0.0062980787 0.0068238294 0.029450376 0.027916934 -0.009017555 0.045262408 0.035044447 0.018144315 0.020682024 0.018048435 -0.047747515 -0.077700444 -0.0018437995 0.031894196 -0.0085420674 -0.067372888 0.043048795 0.030491704 0.023517413 0.009732265 -0.02208757 0.013874688 -0.043311574 -0.055540875 0.051777087 -0.073794685 0.019894429 -0.015862614 0.042824164 -0.064728133 0.032565694 0.056522403 0.017181799 -0.048334301 0.065902449 -0.017423043 -0.0025834427 -0.082805961 -0.019365098 -0.0077028759 -0.021211302 -0.004533336 -0.024843808 -0.043624107 -0.0094132097 -0.0072271097 -0.013382185 0.021159181 -0.026229111 -0.0081275851 -0.026973769 -0.0017191523 -0.044042822 0.051334072 -0.023108833 -0.031063331 0.027960312 -0.019673279 -0.0026428315 -0.0098045068 0.048625987 -0.016280867 -0.056521039 0.0030925067 0.018928468 0.03469386 0.031151146 -0.042149492 0.0013608701 -0.0057915193 0.032235984 0.073525719 0.01554889 0.0035818289 0.042897001 -0.027229657 0.01413989 0.048479255 -0.013905283 -0.012790494 -0.036182683 -0.058566522 0.085884497 0.080016188 0.020633861 -0.066804737 0.068232678 -0.046146713 0.014075663 0.06123196 0.027969752 -0.03682977 -0.021564253 0.074002914 0.058682125 -0.029156012 -0.011964621 -0.021673825 -0.021295516 -0.023275383 -0.063601531 0.052175861 0.038059831 0.031651288
