21 160
L 0.16045173 -0.12054563 0.082832918 -0.0058138845 -0.094037436 0.029217005 0.020483676 -0.029657945 0.043496769 0.030644611 -0.17431504 0.040626839 -0.030208051 0.029522296 -0.1277625 -0.15482582 -0.053595554 -0.061097134 -0.022462862 -0.032750156 -0.0029089435 0.10250929 -0.085958406 0.048424136 -0.12899631 -0.16498449 0.01786634 0.043676678 -0.10835244 -0.049126834 0.10419482 -0.1468346 -0.20825547 -0.028848741 -0.018224435 0.068663657 -0.18338419 0.11885963 -0.29474688 -0.11769574 -0.18516815 0.025131926 -0.0053233965 0.05687578 0.02007775 0.037840858 0.063043214 -0.019399233 -0.10741543 -0.056211777 -0.11443944 -0.044957694 -0.18358426 0.15670617 0.012436495 -0.1214972 0.18865265 -0.163312 -0.11279187 0.11074314 0.044444114 0.13198626 -0.10504836 0.065585457 0.19613717 -0.043698896 -0.077097133 -0.076761335 -0.054814637 0.10629275 -0.12323262 -0.023646867 -0.043854322 0.11560492 0.060295574 0.097441256 0.056470599 0.13367015 -0.065076277 -0.039471097 -0.019145388 0.019571446 0.0054817521 0.028692098 -0.020311266 0.083036788 0.10558468 -0.027529724 0.012508482 0.019386537 -0.067506358 0.020071974 -0.014722167 0.013176061 0.038315207 0.017823189 -0.0010664306 -0.035957754 0.10434855 -0.0029473861 0.059920568 -0.056772437 0.10205761 0.030256879 -0.015445965 -0.01166386 -0.04843403 -0.086553723 -0.040183067 0.062689438 -0.089195989 0.064945586 0.23217349 -0.084528916 0.095367886 -0.050956279 0.17009227 0.10217233 0.013463981 -0.004612728 0.0094503816 0.060738176 0.018147396 -0.05124785 0.15778904 0.043156844 0.0042166766 -0.049206372 -0.032358594 0.048829228 -0.046764586 0.0097701112 -0.043440156 0.019778958 0.097141325 0.10632954 -0.0057746181 0.025076119 -0.0067328447 0.013206522 0.03374663 -0.066995494 0.017409654 0.058048714 0.24250345 -0.025913825 -0.0060058399 0.030804044 0.090519607 0.065761343 0.085086189 -0.064621575 -0.029598191 0.010991371 -0.0013491801 0.0013521401 7.6885924e-05 -0.10156788 0.17287254 0.011851934
S -0.48828205 0.23269135 0.02351379 -0.088347651 0.15268081 -0.12298632 -0.10081571 0.12987873 0.026845617 0.025123429 0.156304 -0.26686633 0.17196383 -0.16089247 0.089314304 0.14466931 -0.21850072 0.135065 -0.097019948 0.05136298 -0.06167629 0.043137152 -0.0045995661 0.0056564859 -0.054280654 0.038855471 -0.070230685 -0.20877585 -0.036195531 -0.019801216 -0.022403233 -0.06360779 0.086589374 -0.19187126 -0.16041867 -0.20265147 -0.041230757 -0.041053742 -0.074881643 0.035052616 -0.0084356973 -0.11283838 0.040990043 -0.037502196 0.0037941621 0.071890123 0.0045281397 0.095261097 -0.1810471 -0.037476931 -0.080062322 0.022471398 0.031318545 -0.080402054 0.099799313 -0.18588673 0.12935443 0.00080647774 -0.20742725 -0.22196423 0.14746593 -0.09614791 0.15651448 0.090257287 -0.026952337 0.17820297 0.049802318 -0.15638743 -0.14529113 -0.061267398 -0.01700478 0.069652013 0.16078705 0.0078330981 0.05097248 -0.056937527 -0.096084744 -0.33335963 -0.05516557 0.066223875 0.10211837 0.069259174 -0.11195759 -0.13229251 -0.039003078 0.071218647 -0.0622086 0.097144082 0.0087602669 0.082335129 -0.022844285 0.040551163 -0.035937451 0.079014249 -0.074246086 -0.076471888 -0.15756015 -0.023601206 0.14931919 0.019298052 0.043534476 -0.085178412 -0.00053283595 -0.20188446 -0.17656399 -0.11267754 0.038645279 0.088758633 0.075834699 -0.18264773 -0.029994424 -0.16344067 -0.12497522 0.33972409 0.060147382 0.10476123 0.0608472 -0.049772389 0.074116051 0.014505832 -0.053881817 0.035825845 0.024282567 -0.020532483 -0.20143917 -0.1090417 0.030152239 -0.096947946 -0.11352503 0.11669859 -0.059420731 -0.010239371 0.097074203 0.077122584 0.12843125 -0.16820963 -0.0081000412 -0.099389799 -0.099096581 -0.029295657 -0.32603183 0.19370209 -0.062297162 0.0050198585 -0.044273369 -0.12660626 -0.20477551 0.17022215 -0.060850196 -0.14354342 -0.24464256 0.14939295 0.088381574 0.097608045 -0.16438758 0.029423464 0.10668284 0.2445299 -0.15393609 0.09416236
A -0.051515147 -0.086105891 0.081316531 0.03864209 0.047693841 -0.11678648 -0.067540407 0.11039375 0.0081839254 0.063137934 -0.27059734 -0.2329279 0.16750933 -0.19240829 -0.083947293 -0.13388583 -0.15772229 -0.052764606 -0.082394391 0.073723882 -0.062218629 0.013204342 -0.091660999 -0.063522547 -0.18497796 -0.11109473 -0.035985842 -0.1781133 -0.1246785 -0.16103037 0.092487603 -0.24784189 -0.16109802 -0.22828473 -0.049336031 -0.04198629 -0.12292813 0.075411074 -0.25609088 -0.089482225 -0.094408788 -0.13383883 0.012176118 0.047607254 -0.12902045 0.15562586 0.097894609 0.10536002 -0.2236407 -0.016459394 -0.15858997 -0.06277708 -0.14856358 0.065811858 0.13663132 -0.34367493 0.31540418 -0.0086584408 -0.35590965 -0.21053699 0.10125221 0.19783658 0.043687094 0.052425463 0.20048015 0.046385359 0.023119645 -0.10611742 -0.076038048 -0.063338801 -0.042261593 -0.031433072 -0.048113678 -0.028477147 0.054138858 0.14099967 0.32570833 -0.0080192657 -0.10171298 -0.24057376 0.075591795 -0.010056405 -0.0064026336 0.089309268 0.023505935 0.24342431 0.029265316 0.10202038 0.09077882 0.008331202 -0.15264721 0.12378738 0.11495709 0.14988899 0.010311273 -0.13581295 -0.14550942 -0.006247926 0.23630539 0.093471356 -0.072154939 -0.096403338 0.12207827 -0.14835709 0.044246674 -0.023048323 -0.0092277406 0.014862428 -0.030728461 -0.039319348 -0.074753724 -0.090794854 0.056258038 0.18696719 0.14391209 0.13363925 0.21731654 -0.063770719 -0.016963314 -0.15279312 0.010844807 0.14538434 -0.062490042 -0.0015815718 -0.03368615 -0.11827753 0.0093430402 0.09549991 -0.052337177 0.22268315 -0.1834559 0.05516272 0.015831916 -0.029511504 0.323024 -0.06735637 -0.0057837823 -0.029552108 -0.062878601 0.07016468 -0.038220592 0.25288656 0.090938844 -0.0068460265 0.11699212 -0.20601709 -0.14588058 0.014277125 -0.029320322 0.023463095 -0.020869523 0.043772042 0.11644863 0.061760854 -0.15248486 -0.06889835 0.066571824 0.17088053 -0.0041085654 0.12333945
V 0.072835863 -0.049579747 0.21023501 -0.080697872 -0.081281856 -0.0050211158 0.016274929 -0.046229385 0.14252335 -0.079907671 -0.23542054 0.09996701 0.03467482 0.018035892 -0.118945 -0.21779259 0.056242783 -0.10931312 0.035164341 0.00044733766 0.021479363 0.049498513 0.016690288 0.078867219 -0.1185553 -0.088145033 0.033300336 0.079141773 0.0037187855 -0.031883787 0.12801246 -0.050337367 -0.11353615 0.0088406298 -0.0055121626 0.053142894 -0.25074813 0.12199283 -0.22286361 -0.2573317 -0.19518273 0.032592606 -0.046443101 0.11162196 0.051701795 0.18236649 0.009372388 -0.013255464 -0.010732198 -0.051017247 -0.05277206 -0.021916041 -0.23917593 0.17329046 0.013430739 -0.099646844 0.17081341 -0.13786997 -0.041019097 0.18948272 -0.03699198 0.10674182 -0.084300525 0.10814599 0.24800526 -0.18799296 -0.12209504 -0.072388388 0.0074087488 0.10988036 0.019233119 -0.01137183 -0.021067794 0.10503013 0.08211311 0.12261141 0.01170692 0.13579278 -0.15749735 -0.038000073 0.033656333 0.0035815083 0.078849539 0.060919315 -0.15629496 0.012988435 0.073829405 -0.082822606 -0.043085754 0.11135727 -0.05433327 0.058837995 0.11833465 -0.020597415 -0.067356102 -0.031965997 0.057662457 -0.044160452 0.05680402 -0.0045676208 0.12925991 -0.061382502 0.080312707 0.051605947 0.016412355 -0.083078802 -0.011417794 -0.0050266818 0.031841997 0.097185947 -0.06408345 0.071560651 0.18007752 -0.121529 0.10312038 0.015345491 0.3167333 0.091770433 0.082558624 -0.032191295 -0.0047991732 0.093965486 0.031292275 0.020888561 0.1728649 -0.0036821712 0.02114987 -0.15021202 0.03227919 -0.02710817 -0.00055219955 0.085728429 -0.026558777 -0.041077368 0.10803007 0.11635462 -0.050715074 0.13623263 0.023182577 -0.059245046 0.13014781 -0.048430093 -0.15399615 0.018605798 0.23826836 0.10650683 -0.0020901964 0.075380102 0.14121366 0.10369638 0.089990109 -0.062225867 -0.0082278289 -0.026734015 0.02749148 -0.038674355 -0.14247566 -0.12095162 0.23003598 -0.067284189
G -0.36603341 0.10322671 0.19151627 -0.033500582 0.04094341 -0.29676327 -0.24242111 0.027555611 0.11910158 -0.10123979 -0.16905785 -0.31097671 0.2796261 -0.17208675 -0.13693717 -0.059032254 -0.024126561 -0.0022319094 -0.12182935 0.03553278 0.082839228 0.05180591 0.0075514456 0.030729253 -0.028202511 0.10425701 -0.14506201 -0.21399537 -0.013005713 -0.22150661 0.011769812 -0.19758342 0.014890121 -0.19324529 -0.084556811 -0.15630296 -0.10058738 0.10844355 -0.16603179 -0.21082692 -0.025382262 -0.12168351 0.019863423 0.049317192 -0.10355215 0.19367684 0.061566804 0.13408883 -0.12515056 -0.0025985597 -0.10435356 0.019888209 -0.059649352 0.028225163 0.14054307 -0.24930079 0.27963305 0.13434923 -0.2419382 -0.16105744 0.066524826 0.13930543 0.12759158 0.11645641 0.051382497 0.082793139 0.090899698 -0.24327901 0.021174431 -0.052456621 0.058503721 -0.0064580431 -0.0028463339 -0.097020842 0.046364971 0.10624125 0.20527019 -0.082646273 -0.20749764 -0.13229351 0.21780664 0.020767538 -0.0095048146 0.088646509 -0.077618755 0.18646456 0.03058161 0.073618852 0.078055553 0.18963131 -0.039244827 0.20651019 0.21386223 0.17385942 -0.21254262 -0.27542427 -0.2062718 0.068915464 0.14036083 0.20711844 -0.13903736 -0.058394726 0.042070381 -0.049514748 0.053396698 -0.13038138 0.084441647 0.13292994 0.011955353 -0.023673182 -0.045953799 -0.18669757 -0.11382749 0.24367265 0.045538038 0.29523113 0.27066249 -0.058377914 0.076001316 -0.079589792 -0.10631575 0.089063287 -0.0062949224 0.024640419 -0.20343393 -0.19713736 0.025432069 -0.032402068 0.085697286 0.17045034 -0.14690927 0.15015656 0.068207748 -0.07532604 0.31256667 -0.16860469 -0.0064689284 -0.10457357 -0.11306368 -0.035842374 -0.19435731 0.25149301 -0.27268893 -0.030847397 -0.13891299 -0.13207528 -0.30897653 0.054418247 -0.018993843 0.044356938 -0.023289673 0.21193384 0.057124313 0.060721274 -0.21135671 -0.12365181 -0.13162084 0.22172457 -0.039197266 0.024795547
E -0.080915585 0.031765979 -0.20748498 -0.05243488 -0.0401989 -0.039707232 0.069800027 0.061810639 -0.017075084 0.22359338 -0.034357637 -0.22253183 -0.16674682 0.15551761 0.12005135 0.14731158 -0.16005306 -0.061834782 -0.13335341 -0.18218675 -0.19087438 0.04991838 -0.10058124 -0.1771984 0.018233975 -0.12512395 0.11443894 0.02557347 -0.22489981 0.1343284 -0.082558349 0.019573942 -0.046352733 0.15729262 -0.075863011 0.19602133 0.3183105 -0.098454058 -0.049483713 0.46843588 0.18082838 -0.14010328 -0.14012539 -0.23886819 0.078823119 -0.24210186 -0.01005784 -0.34019053 -0.33715791 -0.10665082 -0.20257565 -0.091398478 0.24490413 -0.29935849 -0.14701484 0.21145572 -0.28066254 -0.1174193 0.0043761609 0.00034223986 0.13589892 -0.042708334 -0.031302493 0.038495481 0.048508208 0.30135605 0.16223244 -0.016162083 -0.18249322 0.059952278 -0.17054309 -0.052235063 0.11889718 -0.012941586 0.056327932 0.12471467 0.015082498 -0.17175901 0.07540638 0.34896189 -0.050860919 0.22035947 -0.2701059 -0.15358445 0.25797284 0.23773208 0.39051026 -0.044389602 0.35216397 0.089530766 -0.057007924 -0.13478215 -0.44940141 -0.0017897136 0.055676702 0.28748822 -0.2180438 -0.077447146 0.050957736 -0.091277264 -0.0049876804 -0.092129663 -0.052740443 -0.002948856 -0.21704189 0.015091912 0.12913395 -0.24276908 0.10812247 -0.16482623 -0.15489672 -0.021492109 0.11380731 0.30965003 0.28121501 -0.17695636 0.080936387 0.24297328 -0.14590019 0.096936449 -0.1042169 -0.042398676 -0.013615191 -0.2360481 -0.10752288 -0.0019108439 0.20469728 -0.075250156 -0.16946355 0.13919903 -0.014262585 -0.19486047 0.027328016 0.11504702 0.22651519 -0.26028854 0.10293287 -0.22960849 -0.10644302 -0.053346071 -0.27388456 -0.22008105 0.32898888 0.18577984 0.17532186 -0.080732487 -0.21471238 0.26041716 -0.10092665 -0.07086578 -0.058692388 0.05709926 0.064506449 0.11890402 0.077183224 0.066593498 0.26494652 0.066316657 -0.20652583 0.16570765
P -0.58167166 0.35311651 0.1246333 -0.12826301 0.1663601 -0.31230307 -0.25192025 0.1201513 0.13850152 0.029476222 0.2012597 -0.52913386 0.32493144 -0.20203379 -0.0050461716 0.2367938 -0.37958595 0.22723469 -0.20822753 0.02932471 -0.079258211 0.093459107 -0.062950641 -0.11915716 0.12654915 0.0086952792 -0.11064041 -0.3986463 -0.13180865 -0.10797404 -0.097050473 -0.11539905 0.15637462 -0.23667832 -0.18265826 -0.27077314 0.068514451 -0.070424221 0.023613611 0.21114285 0.041695669 -0.014356092 0.18505235 -0.038528241 -0.15380722 -0.14780581 0.093140088 0.29864907 -0.1896988 0.11275485 -0.12477287 0.080025032 0.21120878 -0.082748584 0.29650116 -0.32812077 0.10653612 0.18802333 -0.32069239 -0.42519397 0.19818276 -0.00024578595 0.1498652 -0.10504105 -0.13957931 0.33961311 0.18190929 -0.3249253 -0.21501453 -0.20208362 -0.19677146 0.15217502 0.065346532 -0.23637688 0.066381477 -0.065911017 0.0071118646 -0.53875422 -0.022300866 -0.040146392 0.11402923 0.0036392466 -0.32850495 -0.14583592 0.084063165 0.27365285 -0.094491571 0.29548427 0.040764965 0.077936627 -0.049369875 0.17107213 -0.14418541 0.29032418 -0.069892436 -0.23260753 -0.38709548 0.18196195 0.31342396 0.14514555 -0.10541614 -0.082300335 0.068331204 -0.32700932 -0.16729422 -0.11388029 0.033059336 0.27620453 0.068939157 -0.17632262 -0.069383301 -0.28556934 -0.18897294 0.42151064 0.057560444 0.27024475 -0.11312649 -0.14659613 0.11638655 -0.015243716 -0.013380713 -0.05986046 -0.00075338746 -0.14964266 -0.40110853 -0.21968928 -0.076060981 0.039048575 -0.22337219 0.19626342 -0.18476214 0.11568808 0.1735462 0.18615453 0.28256091 -0.24281898 0.037060495 -0.25337976 -0.2728202 0.10349844 -0.69466108 0.46495298 -0.017379623 -0.035855543 -0.2083018 -0.43693519 -0.37412134 0.077270597 -0.12735085 -0.18020765 -0.36731744 0.20904946 0.17406827 0.19905306 -0.47583392 0.041719548 0.35879242 0.45952058 -0.37403798 0.23627168
R -0.10564462 -0.033844873 -0.073403247 0.041635592 -0.065056853 -0.19022514 -0.13623899 0.034606319 -0.054824706 0.13251655 -0.09056405 -0.31833643 0.024665797 -0.026135458 -0.14368397 0.026042093 -0.20520376 0.021890616 -0.20790143 -0.12167284 0.015001689 0.15769659 -0.19460033 -0.045893986 -0.03736876 -0.13477862 -0.096777074 -0.15579753 -0.26415199 -0.14077629 -0.016377607 -0.32191321 -0.22444347 -0.10407443 -0.082135171 -0.010606992 0.041029058 0.09558823 -0.32011741 0.11697288 -0.055034533 -0.077429049 0.056046724 -0.083859257 -0.076583363 -0.16943681 0.12948039 0.0025709553 -0.29053539 -0.043852169 -0.24613582 -0.059378877 0.029151639 -0.0086198738 0.034724429 -0.11905894 0.17277008 -0.056189243 -0.26436332 -0.13415495 0.17210132 0.1443437 -0.047078501 0.026130507 0.010739333 0.27814132 0.13855475 -0.18006063 -0.12277836 0.012497677 -0.2438744 -0.046684239 -0.021485433 -0.0080386791 0.051347703 0.081604116 0.18576455 -0.031393275 -0.0070441253 -0.012647708 0.020892711 0.080205142 -0.1659269 -0.019221473 0.18780644 0.26044214 0.17602324 0.092049763 0.21079974 0.030045198 -0.051366381 0.073867887 -0.17147084 0.14720331 0.01824303 -0.047496129 -0.25307944 0.05747325 0.18256246 0.14191981 -0.1905259 -0.065415166 0.091444045 -0.001507625 -0.081752501 -0.00013172648 0.0021712531 -0.10777687 -0.082439691 -0.0757026 -0.12067457 -0.089811012 0.13557865 0.16672526 0.055027507 0.029762344 -0.0071608438 0.06014774 -0.059652019 0.023633413 -0.064573459 0.036165312 -0.014230737 -0.16509889 -0.10912433 -0.026488109 0.041067101 0.067220874 -0.063675381 0.19594797 -0.14413281 -0.059528105 -0.005627546 0.055305324 0.20478083 -0.11205551 0.061347835 -0.22801089 -0.12176812 0.05444362 -0.27662471 0.0095770182 0.11064614 0.10451869 -0.06972985 -0.25095704 -0.15853506 -0.081614971 -0.083994493 -0.0056325379 0.063206084 0.07573384 -0.033738069 0.11591343 -0.14714943 0.013387771 0.11782632 0.098666713 -0.041889083 0.13510333
I 0.15196826 0.003215469 0.23922791 -0.17863999 -0.10283989 0.22729227 0.17497964 -0.10408702 0.2226031 -0.15227297 -0.12016164 0.39425999 -0.090017982 0.14148465 0.0019100885 -0.21236895 0.18249944 -0.13779935 0.18757133 0.014190942 -0.005454517 0.030330768 0.16320872 0.2038742 -0.1732792 -0.069485582 0.15129116 0.32304347 0.15016219 0.16131589 0.19952658 0.20745626 -0.014626586 0.15094939 -0.021738656 0.10805128 -0.35927841 0.090398446 -0.17718954 -0.32259807 -0.23145467 0.081815057 -0.13769417 0.13953707 0.24411662 0.2952998 -0.12635374 -0.16027713 0.11181387 -0.10076839 0.089167662 -0.0081728064 -0.31952152 0.18504907 -0.11683076 0.097855829 0.0082673281 -0.28394109 0.24570775 0.45859441 -0.1240508 -0.086466782 -0.098656125 0.19314335 0.32422265 -0.36905074 -0.28952795 0.020177018 0.022561606 0.2501007 0.13678676 0.027628861 0.06990958 0.26990515 0.096849129 0.077796981 -0.32099119 0.15233384 -0.17626891 0.19482167 -0.022789421 0.030480191 0.19533011 -0.023319554 -0.32959139 -0.22771998 0.045097798 -0.2496589 -0.20319128 0.16501854 -0.0054863421 -0.091101743 0.10152881 -0.22742064 -0.10368437 0.15243769 0.28427303 -0.19217007 -0.12921761 -0.21708588 0.4001931 -0.025528612 -0.002698811 0.10540876 -0.074396566 -0.1165313 -0.0085183885 -0.046165701 0.13447145 0.12897936 -0.059776466 0.19199125 0.18639326 -0.27992392 0.094172046 -0.13871562 0.40699637 0.18164062 0.12767145 0.028492155 0.015046885 0.066597298 0.10687429 0.081636444 0.36724976 0.088585347 0.042491902 -0.38585424 0.048045557 -0.23553377 0.1901457 0.049588252 -0.052274574 -0.030685194 -0.11847975 0.24113247 -0.093630098 0.30384743 0.12978399 -0.18500586 0.30555251 -0.26103961 -0.26529527 0.018229906 0.43807068 0.42004511 0.13051043 0.27011496 0.26377124 0.088756785 0.05358877 -0.14880712 -0.049017929 -0.099325776 0.2512812 -0.0043754727 -0.23531631 -0.31280115 0.36428154 -0.20385994
T -0.16838251 0.13186404 0.17277043 -0.14044443 0.030996043 0.0082465503 0.0030257159 0.01783419 0.16807897 -0.042125806 -0.014674001 -0.025078433 0.087706938 -0.022001015 0.013081159 -0.035857357 -0.085220367 0.014056038 0.026556225 0.051785905 -0.079196356 0.054376937 0.046741106 0.04038325 -0.066791229 -0.042101543 0.046652175 -0.024803726 0.02683837 0.027888324 0.055480499 0.047979005 0.036971185 -0.055614971 -0.099014126 -0.051295053 -0.14870934 0.0067972159 -0.10162905 -0.082465969 -0.076578066 0.0025683388 -0.018959044 0.057990998 0.058553737 0.13944238 -0.017698798 0.027893117 -0.049071573 -0.030778602 -0.010257003 0.028881043 -0.077349536 0.045939747 0.058467664 -0.12006495 0.070451088 -0.072836757 -0.043836221 0.032968648 0.044579174 -0.041336033 0.048392948 0.075880907 0.1176509 -0.067857869 -0.088292159 -0.085881136 -0.06868463 0.036318965 0.015338327 0.074575201 0.072921939 0.030671775 0.047073137 0.0065852175 -0.14173187 -0.13399211 -0.077954516 0.05625058 0.048863892 0.020093992 -0.026467826 -0.053748839 -0.13234559 0.0038251707 -0.02360685 -0.015789827 -0.078734927 0.092436872 -0.042296194 -0.0024306457 0.018964348 0.00078185764 -0.050896086 0.0019848447 -0.0045610447 -0.039723281 0.057785522 -0.076717779 0.18264422 -0.058950737 0.0060291756 -0.11171524 -0.087156713 -0.081013426 0.028470762 0.074519776 0.094331697 -0.026535975 -0.043626741 -0.011632942 -0.0066650514 0.081598006 0.11533572 0.033228949 0.18032877 0.033506814 0.089542054 -0.0044355271 0.0043979459 0.0075978441 0.034702454 0.012054408 0.021569358 -0.042736731 -0.00096266164 -0.16297312 -0.088913195 -0.0034926895 0.00094770396 0.07007549 0.057621367 0.0541347 0.085839286 -0.0046010264 -0.027874582 0.03353972 -0.031552471 -0.052799493 -0.11637029 0.068030566 -0.089170307 -0.00347328 0.2138827 0.035458736 -0.12089838 0.24940574 0.080718212 -0.034699019 -0.17692825 0.030308533 0.081834808 0.038879726 -0.031565398 0.0032514601 0.067264669 0.055190738 -0.002713867 0.015042014
K 0.028176293 -0.037806354 -0.15851872 -0.068834417 -0.020355431 0.16358332 0.22960126 0.054759681 0.026523968 0.11298564 -0.142746 0.083190337 -0.21963769 0.17393588 0.22854622 -0.010251096 0.079551876 -0.20280339 0.068161398 -0.07655666 -0.21017745 -0.077236071 0.078061812 -0.049862731 -0.13895009 -0.035650469 0.22381109 0.24873841 0.0029628177 0.26142868 0.02184622 0.22794856 0.02167605 0.20555392 -0.037770052 0.24665086 0.16072398 -0.10646817 -0.0082754763 0.20800623 0.15253343 -0.21360077 -0.30096793 -0.16781339 0.22173274 0.13277884 -0.16152331 -0.48629335 -0.20322463 -0.20050196 -0.046003819 -0.11350449 0.044020113 -0.27090222 -0.29741555 0.31811237 -0.30027348 -0.22414899 0.19643219 0.21728989 -0.00058076577 -0.15460072 0.019964393 0.19735098 0.2573154 0.016571527 -0.030272653 0.10557915 -0.088464543 0.19494392 0.10904791 -0.085187294 0.20759639 0.17003539 0.053284746 0.1728361 -0.13173318 -0.023158727 -0.041860964 0.42482936 -0.021572575 0.23822038 -0.0091911918 -0.10809851 -0.0022228621 0.01709342 0.35126311 -0.24699363 0.22863342 0.14425804 -0.049932618 -0.23171499 -0.22136463 -0.2012886 -0.015742553 0.40286145 0.046432123 -0.27521086 -0.11995084 -0.25324753 0.23770891 -0.092452966 -0.14278817 0.062868707 -0.16789424 -0.023359077 0.16055378 -0.30491859 0.19803721 -0.12481923 -0.10735019 0.087570243 0.077047899 0.20388758 0.31871298 -0.26191697 0.37562087 0.29872715 -0.12829602 0.057940472 -0.10194559 0.046947408 0.008628482 -0.043357037 0.11600045 0.038106099 0.28667474 -0.26749629 -0.057701714 0.0078714984 0.12502213 -0.20442931 -0.013890494 -0.01707192 0.12573597 -0.17376553 0.02420163 0.012998287 0.062812716 -0.21014313 0.12204252 -0.35018194 0.17332429 0.16270834 0.42936972 0.27763283 -0.12965234 0.48116112 0.026434403 -0.0091337357 -0.02862432 0.023833876 0.056917954 0.0051039048 0.35095933 -0.0043424917 -0.014832384 -0.090120792 0.0018121039 -0.0052139317
D -0.2553463 0.20107648 0.074375227 -0.179345 0.0072324281 -0.015115655 0.016527083 -0.0035192647 0.16669215 -0.015358943 0.077045381 -0.047595423 -0.011331378 0.096992679 0.093538374 0.087313786 -0.045866285 0.0032047089 -0.0097461147 -0.057532862 -0.092351913 0.055933926 0.075730473 0.020482769 0.015742559 0.0061344695 0.080309324 0.05794372 0.0097547574 0.13692948 -0.0096375849 0.16003996 0.12249357 0.095921852 -0.11471959 0.014410957 0.015095522 -0.053695653 -0.012315766 0.098101109 0.033729766 -0.032557264 -0.089569107 -0.060421489 0.14951111 0.0262805 -0.082280993 -0.1562918 -0.096948557 -0.07005135 -0.031294748 0.013517863 0.066352643 -0.11567242 -0.057557292 0.1139566 -0.15361646 -0.095879912 0.10591312 0.11499272 0.043076713 -0.14450926 0.039453574 0.1038992 0.06100709 0.047114156 -0.012087972 -0.087246142 -0.099911146 0.088220768 0.0010428451 0.056864318 0.15525155 0.044482775 0.069247171 0.01763179 -0.25833026 -0.21338771 -0.060538068 0.30883369 0.030960321 0.11905321 -0.10583308 -0.14440149 -0.062058855 -0.0080437949 0.12502506 -0.081256367 0.034785014 0.16935843 0.015228459 -0.073338851 -0.16178876 -0.061462518 -0.097262256 0.12903477 -0.040906489 -0.072267354 -0.032479025 -0.11658381 0.17777802 -0.052054785 -0.072519295 -0.031007951 -0.18732223 -0.10104955 0.09889207 -0.0091940751 0.1644894 -0.076383561 -0.069033183 -0.018028896 -0.024043078 0.1471805 0.14103559 -0.051581204 0.16450319 0.1386029 0.050825123 0.085943192 -0.067350671 -0.042018242 0.06103858 -0.068627357 -0.042662866 -0.026555473 0.092433527 -0.25241953 -0.084832549 -0.044243861 0.082751557 -0.025697108 0.060686871 0.077542789 0.054738853 -0.11031587 0.0085151689 -0.034545138 -0.050872393 -0.12974368 -0.19386956 -0.10729831 -0.071618982 0.064529039 0.15681498 0.10578169 -0.16520414 0.32120827 0.03811276 -0.065095924 -0.15686007 0.067374624 0.047229785 0.05194753 0.046158727 0.03807018 0.060899977 0.027292995 -0.069757074 0.0027531646
F 0.032901734 0.064370975 0.27009222 -0.17765503 -0.10114057 0.12700756 0.080041289 -0.13508648 0.2225541 -0.1663786 -0.025030376 0.33234486 -0.037352651 0.14052947 -0.080364965 -0.17999108 0.15246463 -0.047473658 0.13889813 -0.0043836902 0.066050269 0.085992903 0.10780507 0.22314723 -0.067903884 -0.022745494 0.068569303 0.22793329 0.13876414 0.092769019 0.12569863 0.12658384 -0.020039553 0.11007709 -0.023143962 0.020106476 -0.3540661 0.11086534 -0.15678328 -0.35145196 -0.25717956 0.15742114 -0.058061603 0.14998178 0.20120032 0.19637315 -0.069162361 -0.044838704 0.1542387 -0.087645829 0.071219563 0.050528217 -0.27134001 0.24216756 -0.065530457 0.038653735 0.085077509 -0.2300189 0.17899092 0.41581002 -0.087761484 -0.053977143 -0.099049665 0.15510973 0.19822177 -0.30027536 -0.24946883 -0.067224428 0.036142949 0.21155621 0.051499724 0.052259587 0.051223695 0.23875363 0.07664568 0.0070001092 -0.35255218 0.12846661 -0.16049238 0.14137125 0.017821476 0.019576075 0.12843062 -0.035530463 -0.3230978 -0.21931283 0.0071383477 -0.18101467 -0.23135331 0.15335105 0.044920553 -0.033099562 0.096016072 -0.15320775 -0.10896988 0.053642172 0.21837252 -0.094334155 -0.061820149 -0.11905364 0.34009895 -0.029549144 0.015747339 0.11881242 -0.071120419 -0.13335413 -0.029667573 0.010016343 0.077857904 0.1407107 -0.037545864 0.1631474 0.19937342 -0.29114905 0.038278535 -0.081667356 0.31408933 0.17292334 0.18220541 0.094799474 -0.012745227 0.018872282 0.12695614 0.063356295 0.29606959 0.08774019 0.0020681964 -0.35281307 0.045539565 -0.20900111 0.14720899 0.088055231 -0.023446793 0.0062857461 -0.13222079 0.26295862 -0.087692767 0.23087345 0.079989783 -0.14827418 0.16216397 -0.22100058 -0.35012555 0.029984076 0.33459091 0.31421337 0.09280207 0.1922854 0.26967859 0.085200973 0.047903229 -0.10597096 -0.092498951 -0.085451551 0.1252325 0.022262663 -0.22744629 -0.2830089 0.35093698 -0.1869497
Q -0.14041151 -0.00063557335 -0.19936666 0.021758193 -0.010148888 -0.028888712 0.0041588303 0.034944329 -0.072523959 0.19000596 0.06520234 -0.18423282 -0.10029388 0.085114509 0.02468197 0.11219852 -0.14756034 0.041818749 -0.13952909 -0.12177891 -0.079239979 0.10366954 -0.14681938 -0.039484031 -0.012290667 -0.041736986 -0.0085829468 -0.038452975 -0.18193193 0.032136511 -0.09929999 -0.11588169 -0.10307325 -0.0031742479 -0.081326179 0.044635504 0.1703489 -0.029909536 -0.14304201 0.25755426 0.071647428 -0.12452703 -0.068401664 -0.18194155 0.06721893 -0.16763966 0.038623344 -0.20586231 -0.27866751 -0.14935526 -0.17072274 -0.048012309 0.14196658 -0.16061036 -0.12190825 0.070694938 -0.02030471 -0.11693779 -0.10215829 -0.040755171 0.17616977 -0.015813045 0.020798756 0.091843948 -0.010065489 0.29524678 0.1016117 -0.092556283 -0.12732378 0.085877419 -0.18330863 -0.051521018 0.10314025 0.089301936 0.0005011668 0.020896262 -0.022097124 -0.069888033 0.055812817 0.21343593 0.024107102 0.19526771 -0.17423341 -0.12630808 0.15055485 0.14824711 0.26010194 -0.0015443986 0.20940463 0.02088696 -0.0015047723 -0.091996707 -0.27395043 0.020363512 0.058336291 0.15861268 -0.16030791 -0.063620336 0.098846287 -0.00021415604 -0.031852335 -0.081549063 -0.030121308 0.017290818 -0.13454024 0.020321364 0.045326494 -0.21708442 -0.024291471 -0.12315029 -0.081734307 -0.037275564 0.10965863 0.26085573 0.15613627 -0.12588847 0.054122351 0.19502531 -0.08685939 0.13908936 -0.12181091 -0.030244088 0.013890631 -0.13078964 -0.080782503 0.031488806 0.14148013 -0.017417105 -0.094242454 0.18356675 -0.045831107 -0.17987394 0.022327393 0.098946325 0.13534518 -0.15953206 0.075535536 -0.2352713 -0.091324583 -0.021052638 -0.26035425 -0.1646152 0.16190684 0.1724357 0.1438494 -0.13003959 -0.22068575 0.21066071 -0.048322327 -0.062104955 -0.036270935 0.11727955 -0.023475438 0.069199897 0.0073267617 0.056141529 0.13091561 0.050646827 -0.098454021 0.11985048
N -0.134122 0.13084279 0.084467389 -0.17126243 -0.028103707 0.12422875 0.11490145 -0.056066167 0.14807139 -0.071952604 0.08082702 0.21267177 -0.088842824 0.15047015 0.09237422 -0.018375488 0.10135513 -0.029051056 0.086879641 -0.040759984 -0.030924434 0.027001785 0.12067689 0.13175304 -0.039942928 0.044354208 0.096108489 0.20131807 0.10937986 0.18790701 0.034240022 0.21552369 0.092804231 0.14802465 -0.05525212 0.04757531 -0.11883188 -0.011197704 -0.016514082 -0.094018862 -0.06177327 0.016121129 -0.13901557 -0.0069809272 0.23857379 0.13558134 -0.13028646 -0.20799759 0.037583414 -0.13646324 0.056534048 0.018390121 -0.081105225 -0.010491626 -0.15430595 0.18740407 -0.1194368 -0.19714928 0.22326446 0.31578302 -0.042093102 -0.17885612 -0.0080829412 0.18272251 0.14158356 -0.13634089 -0.15072151 -0.015385985 -0.024389926 0.19673727 0.09134943 0.029938055 0.17820176 0.21540216 0.060623068 0.0056740851 -0.38707778 -0.032619935 -0.10133885 0.33558902 0.026438758 0.1364067 0.043854583 -0.13154353 -0.2266883 -0.18219467 0.11110785 -0.2007 -0.07791613 0.18291025 0.049604855 -0.12048098 -0.060344402 -0.18522896 -0.10915022 0.190668 0.14344186 -0.16781831 -0.095711216 -0.17706975 0.32966569 -0.049598541 -0.079400674 0.076263122 -0.16670761 -0.13033736 0.055868257 -0.077614844 0.1573289 -0.0010409433 -0.04521814 0.09945558 0.095279425 -0.033400211 0.12821318 -0.1444573 0.30849141 0.22462326 0.10402204 0.13631976 -0.077227466 -0.0037237662 0.11150981 0.019808007 0.16234547 0.060339283 0.12398301 -0.37782726 0.00011346482 -0.14684939 0.17379814 -0.043932423 0.012182256 0.03123113 -0.080601744 0.056299746 -0.044346027 0.13071752 0.053533189 -0.19936606 0.054321967 -0.28124046 -0.21597521 0.08037328 0.31850308 0.31629276 -0.024911234 0.35495317 0.16713768 -0.0067016128 -0.04872952 -0.01510781 -0.04118029 -0.049567614 0.19141532 0.045046519 -0.1507414 -0.18202034 0.17174403 -0.12992343
Y 0.0048099007 0.065347359 0.16522558 -0.13830684 -0.097301848 0.072316661 0.047642473 -0.11032298 0.17152351 -0.087276317 0.0090585239 0.18562458 -0.049223438 0.14242393 -0.083913803 -0.1035853 0.063386701 -0.017610068 0.059704997 -0.053102694 0.036334034 0.10748331 0.038922876 0.15008315 -0.012905385 -0.040119465 0.049698945 0.15240104 0.04883356 0.079841368 0.054013364 0.066293024 -0.039953448 0.089805253 -0.032549404 0.014834199 -0.20914565 0.07409209 -0.1378683 -0.18117422 -0.17636478 0.12334667 -0.026829805 0.066530205 0.15405402 0.055073511 -0.038164325 -0.049799912 0.069685631 -0.079830319 0.013467888 0.036642402 -0.13825752 0.15385547 -0.067516431 0.055458993 0.041325312 -0.19085106 0.11554101 0.29225129 -0.023301149 -0.04601761 -0.093822144 0.091961958 0.13629714 -0.12886961 -0.15211126 -0.11609885 -0.027187767 0.18543661 -0.056338429 0.042590432 0.056387473 0.17821984 0.067040108 0.006165057 -0.2992565 0.051575996 -0.10067701 0.16840893 0.0076686167 0.057263743 0.012644096 -0.076081671 -0.1988523 -0.10494942 0.066111706 -0.11524751 -0.12300587 0.12172333 0.03817118 -0.033413056 -0.034998022 -0.084089831 -0.068502873 0.071412429 0.091476396 -0.050239798 -0.0021574507 -0.073995426 0.23745839 -0.044163492 0.012392064 0.086930446 -0.099071421 -0.095525771 -0.019571636 -0.026194593 0.053373184 0.076092482 -0.060072683 0.10622896 0.18758573 -0.17316267 0.052835941 -0.087539665 0.21317577 0.18223037 0.12836491 0.12129302 -0.026249483 -0.013819887 0.10224063 -0.010682269 0.19578968 0.074884981 0.019700194 -0.27097666 -0.010683162 -0.12802096 0.094754964 0.03923969 -0.0038555604 0.050307512 -0.068537593 0.1633271 -0.048363622 0.097839922 0.014249311 -0.10421219 -0.0070931357 -0.18376873 -0.23318106 0.068936624 0.26824537 0.17114614 -0.012551085 0.1815853 0.19217941 0.04781637 0.010592734 -0.044910081 -0.083485603 -0.026160864 0.053326648 0.036068458 -0.11045425 -0.18397589 0.2327631 -0.097781993
M 0.16624595 -0.046027772 0.079269208 -0.087471887 -0.061193306 0.19003177 0.15605293 -0.031880133 0.094105013 -0.0031837572 -0.06342078 0.22046851 -0.10130749 0.092857353 0.011527321 -0.12080901 -7.1992858e-05 -0.065470494 0.083565027 -0.0097237183 -0.060461547 0.050714258 0.02126243 0.093138635 -0.14875056 -0.14327863 0.12016168 0.18196727 -0.0011481872 0.1189657 0.1328792 0.068233147 -0.095220901 0.069976978 -0.024047201 0.095122226 -0.21194766 0.045706641 -0.175889 -0.10011883 -0.18199231 0.055879943 -0.069127373 0.057721153 0.14279465 0.099268645 -0.044258729 -0.10940491 -0.019877793 -0.08088214 -0.0075800731 -0.030347953 -0.19333427 0.1210797 -0.067055739 0.012162245 0.033622555 -0.24717274 0.070663109 0.24662742 -0.014926787 -0.030168094 -0.098304875 0.097067125 0.24203332 -0.15564857 -0.17861669 -0.0023651186 -0.071474873 0.16148739 -0.034106199 0.019236451 0.047656037 0.20756082 0.079002783 0.056888022 -0.18481249 0.068881378 -0.066473968 0.12350816 -0.055867061 0.048105061 0.046421777 -0.064259134 -0.14421673 -0.063551456 0.076743171 -0.11829962 -0.090295143 0.058855373 -0.047362138 -0.081675336 -0.059273493 -0.11423422 0.020465873 0.15429509 0.12684441 -0.13929677 0.023482919 -0.16025078 0.2768181 -0.05955755 0.046856936 0.01136732 -0.11304451 -0.053037304 -0.038023632 -0.090437859 0.065160483 0.047462214 -0.08654809 0.13063201 0.22529723 -0.13431817 0.13093571 -0.1494842 0.24391057 0.15630694 0.061411384 0.03321176 0.029203415 0.046945449 0.064890817 -0.017620325 0.2590245 0.080595858 0.034373105 -0.22044922 -0.06584914 -0.085818425 0.079975672 -0.020901123 -0.035274882 0.046550747 -0.032392863 0.1649742 -0.042830914 0.1506528 0.051711403 -0.072723359 0.11568467 -0.16664371 -0.026890997 0.058479004 0.38472825 0.16253595 0.072877064 0.18901619 0.15739664 0.021862678 0.0018541883 -0.12243788 -0.016722564 -0.027022578 0.12145754 0.044769321 -0.017351875 -0.18291147 0.2173433 -0.053914703
H -0.16102727 0.015801163 -0.0050078142 -0.0071667759 -0.050143823 -0.078601874 -0.080764487 -0.026044764 -0.010377746 0.066870183 0.033036735 -0.11490325 0.0007318923 0.02954264 -0.14233394 -0.0097273076 -0.11092339 0.068648599 -0.10724501 -0.075405873 0.056113258 0.1779691 -0.14057693 0.10189848 -0.045370176 -0.049942899 -0.09529715 -0.062678948 -0.12228542 -0.084997743 -0.016393311 -0.2387908 -0.1837856 -0.101377 -0.085467488 -0.083135642 -0.098945208 0.096300073 -0.29972214 -0.060652085 -0.13580436 -0.012019245 0.035106551 -0.028384777 0.041416027 -0.063221321 0.085532688 0.0041743098 -0.15261969 -0.11468799 -0.1414945 0.002679891 -0.061152544 0.082416169 -0.03458555 -0.092049859 0.23637821 -0.14242941 -0.17336376 0.015602733 0.14426266 0.050416835 -0.014655762 0.10625527 -0.013338446 0.15409057 0.011383859 -0.16027573 -0.063674316 0.079846352 -0.1744563 -0.017588045 0.024026815 0.12684856 0.011892357 -0.034782436 -0.044884603 0.030131487 -0.010949612 0.028262544 0.047809646 0.084747106 -0.066731453 -0.058598619 0.014446852 0.056714106 0.090574853 0.024797387 0.024286197 0.012155845 0.025334777 0.0043565854 -0.080825731 0.043546263 0.0060333665 -0.024488678 -0.089215212 0.0042571258 0.1224394 0.085005157 -0.028787285 -0.063901141 0.045637447 0.044058561 -0.075371206 -0.023180148 -0.036040805 -0.098538511 -0.10171323 -0.032981832 -0.048895057 -0.012788625 0.14132141 0.050388552 -0.00057324901 -0.021013929 0.039674938 0.1010617 0.018952407 0.11366089 -0.083640851 0.016880974 0.042187251 -0.0489677 -0.0061945077 0.039782465 0.019982856 -0.028451793 -0.013152303 0.10288686 -0.05785308 -0.057035103 0.0062378692 0.055014543 0.029150506 0.028335722 0.012052283 -0.13297789 -0.049066026 -0.00024280058 -0.1703658 -0.07973358 -0.067786187 0.1086252 0.019481126 -0.10510688 -0.089622505 0.0035710151 0.030885313 0.00041260797 0.041983623 0.067486934 -0.09716671 0.032850597 -0.072723225 0.034226619 -0.019708192 -0.018831236 0.087236121 0.033823099
C -0.27490023 0.033427544 0.14184636 0.053044882 -0.1483963 -0.28947398 -0.37124535 -0.23012389 0.054925442 -0.19965321 0.095183074 -0.079692118 0.13161777 0.068724714 -0.38989887 -0.056354094 0.18382609 0.13072319 -0.1806283 -0.13749976 0.40750039 0.23670352 -0.085214183 0.28979284 0.20513031 0.26377442 -0.32930017 -0.093436524 0.0026983297 -0.27985784 -0.13902098 -0.29150754 -0.071573906 -0.088553295 -0.01909731 -0.1978678 -0.14151235 0.26103091 -0.22173953 -0.3989591 -0.14940569 0.09113279 0.12575859 0.035395145 -0.013749347 -0.041375287 0.10844133 0.12545529 0.084309451 -0.077007145 -0.07471545 0.12071566 -0.037338514 0.24065244 0.019512122 -0.04124688 0.35966778 0.099127725 -0.05428575 0.15299928 0.055703793 0.15906589 -0.016343694 0.15329322 -0.14111492 0.17089896 0.044563692 -0.46913919 0.14567192 0.21435589 -0.17078772 -0.039950736 -0.03036144 0.13642694 -0.0083061103 -0.012752113 -0.11474403 0.21956444 -0.23360473 0.018557113 0.26629713 0.081719667 0.0063493559 0.068050563 -0.16575201 -0.0053843828 0.10929825 -0.0020452559 -0.024519065 0.21318719 0.20313208 0.23529692 0.19706737 0.14329296 -0.26275375 -0.32485008 -0.13848738 0.15210827 0.07092075 0.3636499 -0.19988436 0.018066812 0.034238037 0.33063594 0.07769046 -0.14767911 -0.0071346415 -0.0014012395 -0.17156681 0.16886708 -0.02222007 -0.10156408 0.11192521 -0.10275853 -0.19419891 0.17593463 0.1314882 0.17311949 0.17567499 0.24356252 -0.2297817 -0.073154919 0.14706835 -0.02601031 -0.068921946 0.026673133 0.0024198699 -0.13711849 0.25586039 0.10457285 -0.076820128 0.11888514 -0.010374096 -0.034256771 0.046440359 0.026519127 0.030589027 -0.241914 -0.1370423 -0.08308769 -0.33738434 -0.10838091 -0.66675693 0.097287998 -0.16401428 -0.093461268 -0.35617137 -0.013682649 0.14567934 0.13862388 0.22837096 0.30267084 -0.3115299 -0.0094324397 -0.22398415 -0.061198801 -0.42720628 -0.076212555 0.23942895 -0.14666933
W 0.053412788 0.033772808 0.29925656 -0.10062661 -0.12965375 -0.052789297 -0.10276795 -0.14044848 0.20197019 -0.14414492 -0.075596392 0.073272794 0.094547525 0.032570362 -0.2693013 -0.16147901 0.0078745214 0.02068951 -0.0099512562 -0.028924922 0.15218584 0.17620941 -0.019938383 0.16785862 -0.0087146834 -0.093427271 -0.064245552 0.027989581 -0.020541245 -0.11960833 0.11675751 -0.13450539 -0.12839836 -0.033131454 -0.024763273 -0.066532746 -0.34378046 0.19934073 -0.27862522 -0.31870317 -0.30234838 0.20357983 0.12379495 0.17984296 -0.0001009559 0.022401929 0.078839101 0.19549304 0.088937201 0.043493956 -0.029842347 0.055651292 -0.23631661 0.33948186 0.12459955 -0.1802883 0.28144324 -0.091347493 -0.046013106 0.19123706 -0.013972992 0.1431074 -0.14082141 0.014565302 0.1133377 -0.13802224 -0.13143519 -0.23443128 0.0074625467 0.10854036 -0.14666802 0.064825118 -0.11186526 0.087398656 0.089911297 0.026772797 -0.097727098 0.11430483 -0.15796578 -0.096807189 0.039261457 -0.066587552 0.021000633 0.02989185 -0.19193174 0.0045799473 -0.032189723 0.013773929 -0.19521703 0.12183521 0.0011017985 0.14842603 0.099909931 0.066603094 -0.10466301 -0.18318491 0.0035244827 0.0919789 0.12096563 0.096520193 0.079103537 -0.014925345 0.15463218 0.06272734 -0.0092599047 -0.11020377 -0.094543971 0.12119919 -0.050813735 0.17422853 -0.089593127 0.038138773 0.21917069 -0.27382553 -0.058129288 0.10378339 0.16438203 0.048912622 0.19137317 0.029930148 0.020833282 0.016862743 0.098461956 -0.040899958 0.167144 0.013372197 -0.12528811 -0.16136773 0.031854015 -0.082257017 -0.024853354 0.19457559 -0.020232828 0.041899148 -0.0026178653 0.25433671 -0.052642424 0.075190395 -0.055211924 0.0073585813 -0.091567203 0.033946089 -0.34757757 -0.012012873 0.085795753 -0.0088489624 0.0059346631 -0.08248619 0.19648808 0.10272437 0.088572115 -0.060600925 -0.1022875 0.00019739912 -0.16944377 -0.0045802617 -0.10681585 -0.13119338 0.28445488 -0.081859492
U -0.090530135 0.044366233 0.062523052 -0.052877311 -0.010532225 -0.027759837 -0.017246824 -0.00047199577 0.068680458 -0.0047915336 -0.0200099 -0.038111795 0.023844469 0.0070172804 -0.033026632 -0.021913683 -0.043409068 0.0048296312 -0.02815276 -0.014747901 -0.0087319482 0.061324421 -0.010973342 0.032196153 -0.038643498 -0.03060955 -0.0022186053 -0.0046797008 -0.028698966 -0.0042331871 0.021791114 -0.032317355 -0.032033682 -0.024681704 -0.050358165 -0.013748276 -0.075119898 0.033349227 -0.11444695 -0.038045019 -0.065856248 -0.011122998 -0.011407035 0.004197903 0.038820658 0.032516114 0.0065900926 -0.015842244 -0.06901931 -0.03943833 -0.054160699 0.0030173864 -0.045816652 0.033514325 0.0077239205 -0.047956645 0.068577774 -0.065772571 -0.044663172 0.040459711 0.043650586 0.0092205079 0.00031355189 0.064325698 0.072635792 0.018069485 -0.025765587 -0.088330381 -0.04864011 0.053600911 -0.040174857 0.015262458 0.034080874 0.052647669 0.041624017 0.03271788 -0.050845273 -0.036799949 -0.062391736 0.053789143 0.030954061 0.042042177 -0.030799311 -0.033011861 -0.049728412 0.038771212 0.052997958 -0.014294099 0.0053119012 0.073007904 -0.015433555 0.012218858 -0.027348028 0.0098771146 -0.040743425 0.0033633967 -0.039432939 -0.023284372 0.059767507 -0.0051490352 0.059422076 -0.042759873 0.019761158 -0.013526715 -0.060195275 -0.053028669 0.013551562 -0.010035693 0.025912261 -0.0086358385 -0.049375705 -0.010701398 0.06098352 0.041552261 0.063427582 0.004418999 0.12423524 0.064359188 0.043690052 0.029675765 -0.027628213 0.013938009 0.029296083 -0.032202847 0.014093724 -0.010878573 0.02827487 -0.095068507 -0.032050181 0.026235327 -0.0091568297 0.0091598732 0.016081743 0.028622855 0.068797253 -0.0060964408 -0.0040688445 -0.018222196 -0.035822004 -0.033936247 -0.086940728 -0.015263227 -0.066619486 0.034064524 0.10348526 -0.0072276774 -0.086656317 0.10911722 0.043422252 -0.0018966164 -0.03186721 0.02769806 0.00062595349 0.024106055 -0.027913023 0.0071650073 0.0027938173 0.003488794 0.039348893 0.0065418077
